tree
version=v4
num_class=3
num_tree_per_iteration=3
label_index=0
max_feature_idx=767
objective=multiclass num_class:3
feature_names=Column_0 Column_1 Column_2 Column_3 Column_4 Column_5 Column_6 Column_7 Column_8 Column_9 Column_10 Column_11 Column_12 Column_13 Column_14 Column_15 Column_16 Column_17 Column_18 Column_19 Column_20 Column_21 Column_22 Column_23 Column_24 Column_25 Column_26 Column_27 Column_28 Column_29 Column_30 Column_31 Column_32 Column_33 Column_34 Column_35 Column_36 Column_37 Column_38 Column_39 Column_40 Column_41 Column_42 Column_43 Column_44 Column_45 Column_46 Column_47 Column_48 Column_49 Column_50 Column_51 Column_52 Column_53 Column_54 Column_55 Column_56 Column_57 Column_58 Column_59 Column_60 Column_61 Column_62 Column_63 Column_64 Column_65 Column_66 Column_67 Column_68 Column_69 Column_70 Column_71 Column_72 Column_73 Column_74 Column_75 Column_76 Column_77 Column_78 Column_79 Column_80 Column_81 Column_82 Column_83 Column_84 Column_85 Column_86 Column_87 Column_88 Column_89 Column_90 Column_91 Column_92 Column_93 Column_94 Column_95 Column_96 Column_97 Column_98 Column_99 Column_100 Column_101 Column_102 Column_103 Column_104 Column_105 Column_106 Column_107 Column_108 Column_109 Column_110 Column_111 Column_112 Column_113 Column_114 Column_115 Column_116 Column_117 Column_118 Column_119 Column_120 Column_121 Column_122 Column_123 Column_124 Column_125 Column_126 Column_127 Column_128 Column_129 Column_130 Column_131 Column_132 Column_133 Column_134 Column_135 Column_136 Column_137 Column_138 Column_139 Column_140 Column_141 Column_142 Column_143 Column_144 Column_145 Column_146 Column_147 Column_148 Column_149 Column_150 Column_151 Column_152 Column_153 Column_154 Column_155 Column_156 Column_157 Column_158 Column_159 Column_160 Column_161 Column_162 Column_163 Column_164 Column_165 Column_166 Column_167 Column_168 Column_169 Column_170 Column_171 Column_172 Column_173 Column_174 Column_175 Column_176 Column_177 Column_178 Column_179 Column_180 Column_181 Column_182 Column_183 Column_184 Column_185 Column_186 Column_187 Column_188 Column_189 Column_190 Column_191 Column_192 Column_193 Column_194 Column_195 Column_196 Column_197 Column_198 Column_199 Column_200 Column_201 Column_202 Column_203 Column_204 Column_205 Column_206 Column_207 Column_208 Column_209 Column_210 Column_211 Column_212 Column_213 Column_214 Column_215 Column_216 Column_217 Column_218 Column_219 Column_220 Column_221 Column_222 Column_223 Column_224 Column_225 Column_226 Column_227 Column_228 Column_229 Column_230 Column_231 Column_232 Column_233 Column_234 Column_235 Column_236 Column_237 Column_238 Column_239 Column_240 Column_241 Column_242 Column_243 Column_244 Column_245 Column_246 Column_247 Column_248 Column_249 Column_250 Column_251 Column_252 Column_253 Column_254 Column_255 Column_256 Column_257 Column_258 Column_259 Column_260 Column_261 Column_262 Column_263 Column_264 Column_265 Column_266 Column_267 Column_268 Column_269 Column_270 Column_271 Column_272 Column_273 Column_274 Column_275 Column_276 Column_277 Column_278 Column_279 Column_280 Column_281 Column_282 Column_283 Column_284 Column_285 Column_286 Column_287 Column_288 Column_289 Column_290 Column_291 Column_292 Column_293 Column_294 Column_295 Column_296 Column_297 Column_298 Column_299 Column_300 Column_301 Column_302 Column_303 Column_304 Column_305 Column_306 Column_307 Column_308 Column_309 Column_310 Column_311 Column_312 Column_313 Column_314 Column_315 Column_316 Column_317 Column_318 Column_319 Column_320 Column_321 Column_322 Column_323 Column_324 Column_325 Column_326 Column_327 Column_328 Column_329 Column_330 Column_331 Column_332 Column_333 Column_334 Column_335 Column_336 Column_337 Column_338 Column_339 Column_340 Column_341 Column_342 Column_343 Column_344 Column_345 Column_346 Column_347 Column_348 Column_349 Column_350 Column_351 Column_352 Column_353 Column_354 Column_355 Column_356 Column_357 Column_358 Column_359 Column_360 Column_361 Column_362 Column_363 Column_364 Column_365 Column_366 Column_367 Column_368 Column_369 Column_370 Column_371 Column_372 Column_373 Column_374 Column_375 Column_376 Column_377 Column_378 Column_379 Column_380 Column_381 Column_382 Column_383 Column_384 Column_385 Column_386 Column_387 Column_388 Column_389 Column_390 Column_391 Column_392 Column_393 Column_394 Column_395 Column_396 Column_397 Column_398 Column_399 Column_400 Column_401 Column_402 Column_403 Column_404 Column_405 Column_406 Column_407 Column_408 Column_409 Column_410 Column_411 Column_412 Column_413 Column_414 Column_415 Column_416 Column_417 Column_418 Column_419 Column_420 Column_421 Column_422 Column_423 Column_424 Column_425 Column_426 Column_427 Column_428 Column_429 Column_430 Column_431 Column_432 Column_433 Column_434 Column_435 Column_436 Column_437 Column_438 Column_439 Column_440 Column_441 Column_442 Column_443 Column_444 Column_445 Column_446 Column_447 Column_448 Column_449 Column_450 Column_451 Column_452 Column_453 Column_454 Column_455 Column_456 Column_457 Column_458 Column_459 Column_460 Column_461 Column_462 Column_463 Column_464 Column_465 Column_466 Column_467 Column_468 Column_469 Column_470 Column_471 Column_472 Column_473 Column_474 Column_475 Column_476 Column_477 Column_478 Column_479 Column_480 Column_481 Column_482 Column_483 Column_484 Column_485 Column_486 Column_487 Column_488 Column_489 Column_490 Column_491 Column_492 Column_493 Column_494 Column_495 Column_496 Column_497 Column_498 Column_499 Column_500 Column_501 Column_502 Column_503 Column_504 Column_505 Column_506 Column_507 Column_508 Column_509 Column_510 Column_511 Column_512 Column_513 Column_514 Column_515 Column_516 Column_517 Column_518 Column_519 Column_520 Column_521 Column_522 Column_523 Column_524 Column_525 Column_526 Column_527 Column_528 Column_529 Column_530 Column_531 Column_532 Column_533 Column_534 Column_535 Column_536 Column_537 Column_538 Column_539 Column_540 Column_541 Column_542 Column_543 Column_544 Column_545 Column_546 Column_547 Column_548 Column_549 Column_550 Column_551 Column_552 Column_553 Column_554 Column_555 Column_556 Column_557 Column_558 Column_559 Column_560 Column_561 Column_562 Column_563 Column_564 Column_565 Column_566 Column_567 Column_568 Column_569 Column_570 Column_571 Column_572 Column_573 Column_574 Column_575 Column_576 Column_577 Column_578 Column_579 Column_580 Column_581 Column_582 Column_583 Column_584 Column_585 Column_586 Column_587 Column_588 Column_589 Column_590 Column_591 Column_592 Column_593 Column_594 Column_595 Column_596 Column_597 Column_598 Column_599 Column_600 Column_601 Column_602 Column_603 Column_604 Column_605 Column_606 Column_607 Column_608 Column_609 Column_610 Column_611 Column_612 Column_613 Column_614 Column_615 Column_616 Column_617 Column_618 Column_619 Column_620 Column_621 Column_622 Column_623 Column_624 Column_625 Column_626 Column_627 Column_628 Column_629 Column_630 Column_631 Column_632 Column_633 Column_634 Column_635 Column_636 Column_637 Column_638 Column_639 Column_640 Column_641 Column_642 Column_643 Column_644 Column_645 Column_646 Column_647 Column_648 Column_649 Column_650 Column_651 Column_652 Column_653 Column_654 Column_655 Column_656 Column_657 Column_658 Column_659 Column_660 Column_661 Column_662 Column_663 Column_664 Column_665 Column_666 Column_667 Column_668 Column_669 Column_670 Column_671 Column_672 Column_673 Column_674 Column_675 Column_676 Column_677 Column_678 Column_679 Column_680 Column_681 Column_682 Column_683 Column_684 Column_685 Column_686 Column_687 Column_688 Column_689 Column_690 Column_691 Column_692 Column_693 Column_694 Column_695 Column_696 Column_697 Column_698 Column_699 Column_700 Column_701 Column_702 Column_703 Column_704 Column_705 Column_706 Column_707 Column_708 Column_709 Column_710 Column_711 Column_712 Column_713 Column_714 Column_715 Column_716 Column_717 Column_718 Column_719 Column_720 Column_721 Column_722 Column_723 Column_724 Column_725 Column_726 Column_727 Column_728 Column_729 Column_730 Column_731 Column_732 Column_733 Column_734 Column_735 Column_736 Column_737 Column_738 Column_739 Column_740 Column_741 Column_742 Column_743 Column_744 Column_745 Column_746 Column_747 Column_748 Column_749 Column_750 Column_751 Column_752 Column_753 Column_754 Column_755 Column_756 Column_757 Column_758 Column_759 Column_760 Column_761 Column_762 Column_763 Column_764 Column_765 Column_766 Column_767
feature_infos=[-0.45309937000274658:0.94346845149993896] [-1.2536563873291016:-0.18494531512260437] [-0.61150610446929932:0.32332223653793335] [0.15312559902667999:0.85708659887313843] [-0.35876727104187012:0.39110580086708069] [-0.17535346746444702:0.67267096042633057] [0.27640160918235779:1.1436295509338379] [-0.59102225303649902:0.2189573347568512] [-0.23353585600852966:0.3470798134803772] [-0.61162453889846802:0.36221083998680115] [-0.35722029209136963:0.3599320650100708] [0.37087810039520264:1.130922794342041] [0.074023313820362091:0.71579176187515259] [-0.30933177471160889:0.35062986612319946] [-1.1953672170639038:-0.35069364309310913] [-1.6624839305877686:-0.81504374742507935] [-0.75382858514785767:0.078491397202014923] [-0.15804220736026764:0.63019090890884399] [-0.13791276514530182:0.70224863290786743] [-0.69559532403945923:0.17287088930606842] [0.16023120284080505:0.73382163047790527] [-0.34331691265106201:0.33187416195869446] [-0.45790481567382812:0.47346785664558411] [-0.25610390305519104:0.26199987530708313] [-0.24474723637104034:0.4803473949432373] [-0.52884477376937866:0.23793430626392365] [-0.71631425619125366:0.1911022961139679] [-0.72380101680755615:0.18215653300285339] [-0.82672202587127686:-0.011563128791749477] [0.056907333433628082:0.99665349721908569] [-0.8685336709022522:-0.20036211609840393] [-0.5328594446182251:0.31541258096694946] [-0.3067878782749176:0.47901627421379089] [-0.2699580192565918:0.59151005744934082] [0.14277853071689606:0.68600332736968994] [0.80777615308761597:1.9987844228744507] [-1.5075222253799438:-0.58858400583267212] [-0.90375912189483643:0.20351728796958923] [-0.15711021423339844:0.54472386837005615] [-0.10915581881999969:0.65510272979736328] [-0.28362917900085449:0.69743251800537109] [-0.097611919045448303:0.77498716115951538] [-0.24105446040630341:0.73067647218704224] [-0.47465628385543823:0.24370816349983215] [-0.70034873485565186:0.24637563526630402] [-0.21695367991924286:0.59033799171447754] [-0.80501294136047363:0.14688302576541901] [0.41853907704353333:1.0336025953292847] [-0.28538995981216431:0.35872194170951843] [-0.067769989371299744:0.48147258162498474] [-2.4217641353607178:-1.3460984230041504] [-0.35749942064285278:0.42814570665359497] [-1.3083733320236206:-0.2747187614440918] [-0.067962087690830231:0.78996378183364868] [0.0028410865925252438:0.8004646897315979] [-0.41059967875480652:0.41270560026168823] [-0.79452621936798096:0.030200663954019547] [0.71661895513534546:1.3425529003143311] [0.32028523087501526:1.1859996318817139] [-1.6283001899719238:-0.46668770909309387] [0.85363370180130005:2.0999565124511719] [-0.64218086004257202:0.67487311363220215] [-0.65347975492477417:0.088294260203838348] [-0.089466162025928497:0.70804899930953979] [-1.055305004119873:-0.17030519247055054] [-0.33199292421340942:0.39770525693893433] [-0.27634549140930176:0.51632308959960938] [-0.30671206116676331:0.36810868978500366] [-0.27054348587989807:0.53027933835983276] [0.072492219507694244:1.1127253770828247] [-0.13459970057010651:0.64570271968841553] [-0.77848923206329346:0.20855425298213959] [0.36341708898544312:1.1269965171813965] [-1.144983172416687:-0.3235430121421814] [-0.76270824670791626:0.22213353216648102] [-1.2845638990402222:-0.38954505324363708] [0.30465641617774963:1.2509803771972656] [-0.13679711520671844:0.62838292121887207] [-0.88088482618331909:0.24628213047981262] [-2.6721677780151367:-1.4666062593460083] [-0.14764627814292908:1.1042574644088745] [-0.51866531372070312:0.50941836833953857] [-0.65099358558654785:0.020094685256481171] [-1.1915912628173828:-0.42845752835273743] [1.0708210468292236:1.9780617952346802] [-0.16936787962913513:0.72783178091049194] [-0.011533425189554691:0.70659375190734863] [0.27193400263786316:0.9930565357208252] [-0.61717116832733154:0.23087601363658905] [-0.13983426988124847:0.52835208177566528] [-0.30417388677597046:0.46050724387168884] [-0.546894371509552:0.37212815880775452] [-0.63380223512649536:0.18780532479286194] [-0.0999017134308815:0.80676615238189697] [-0.16902539134025574:0.71118509769439697] [-0.22549113631248474:0.59297758340835571] [-0.47487461566925049:0.4240792989730835] [-0.16902646422386169:0.5558856725692749] [-1.1830942630767822:-0.44114989042282104] [-0.3669922947883606:0.32080820202827454] [-0.004094837699085474:1.3747444152832031] [1.433692455291748:2.5879361629486084] [-0.063830256462097168:0.53306370973587036] [-0.88394773006439209:0.20120829343795776] [-0.17012137174606323:0.57005894184112549] [-1.6441844701766968:-0.75982719659805298] [-0.86842256784439087:-0.14242599904537201] [-0.85646933317184448:0.36146408319473267] [0.71609646081924438:1.7106033563613892] [-0.70137500762939453:-0.011947542428970337] [-0.47706565260887146:0.62247991561889648] [-1.1756769418716431:-0.067755289375782013] [-1.8000377416610718:-0.84403085708618164] [-0.7156531810760498:0.18844650685787201] [0.24579419195652008:1.1799160242080688] [-0.61121618747711182:0.16556112468242645] [-0.92751884460449219:0.19887605309486389] [-0.32669135928153992:0.73118895292282104] [-0.36605232954025269:0.57298082113265991] [-0.39146777987480164:0.55907958745956421] [-0.09363429993391037:0.73490530252456665] [-0.33753538131713867:0.62539583444595337] [-0.66955780982971191:0.23583948612213135] [-1.3493530750274658:-0.39437797665596008] [0.14669163525104523:1.1356101036071777] [-0.93145626783370972:-0.071271054446697235] [-0.43497136235237122:0.23297254741191864] [-1.1643996238708496:-0.2381778359413147] [-0.10469291359186172:0.60586702823638916] [-0.12377768754959106:0.79109430313110352] [0.18976542353630066:0.94368612766265869] [-0.51788288354873657:0.36592569947242737] [-0.023908820003271103:0.69419103860855103] [0.35687887668609619:1.1617887020111084] [-0.59859490394592285:0.25330960750579834] [-1.5324816703796387:-0.51326596736907959] [-0.71457076072692871:-0.083018705248832703] [-0.3808499276638031:0.5224645733833313] [-0.14582408964633942:0.74315273761749268] [-0.22783766686916351:0.49210244417190552] [-0.63304442167282104:0.20649579167366028] [0.088645152747631073:1.0634971857070923] [-1.0412552356719971:-0.10783626139163971] [0.1709599494934082:0.91162431240081787] [-0.23475660383701324:0.81981772184371948] [0.15118145942687988:1.1523652076721191] [-0.25819447636604309:0.62452828884124756] [-0.33033642172813416:0.39561206102371216] [0.65667396783828735:1.3258872032165527] [0.06846194714307785:0.65531569719314575] [-0.35787937045097351:0.69258403778076172] [-1.7459466457366943:-0.55573791265487671] [-0.50089192390441895:0.12061218172311783] [-0.41150179505348206:0.70480960607528687] [-0.62592113018035889:0.11982518434524536] [-0.35019847750663757:0.30337598919868469] [0.23540489375591278:1.3389797210693359] [-0.37028050422668457:0.52680915594100952] [-0.16049416363239288:0.53796589374542236] [-1.2654358148574829:-0.24056987464427948] [0.55708247423171997:1.290485143661499] [-0.2476365715265274:0.65112709999084473] [-0.048618718981742859:0.55300116539001465] [-0.70113515853881836:0.11697299778461456] [-0.78169000148773193:0.20736479759216309] [-0.0006418537232093513:1.0129646062850952] [-1.5748233795166016:-0.6824343204498291] [-0.27987709641456604:0.38156545162200928] [-0.89811599254608154:0.36898007988929749] [0.50461822748184204:1.4214038848876953] [-0.75072282552719116:0.16432161629199982] [-0.48653176426887512:0.20191772282123566] [-0.44118180871009827:0.44298124313354492] [0.095697261393070221:0.85143548250198364] [-2.0393009185791016:-0.77973812818527222] [-0.10382714867591858:0.57938885688781738] [-0.026746321469545364:0.91797757148742676] [-0.25589877367019653:0.57200020551681519] [-0.67923301458358765:0.50601685047149658] [-0.82724922895431519:0.043811708688735962] [0.17301151156425476:1.2003930807113647] [-0.28679528832435608:0.5287628173828125] [-0.60997170209884644:0.11491625010967255] [-0.19068087637424469:0.79100704193115234] [-1.6296364068984985:-0.40966331958770752] [-0.67423355579376221:0.34493839740753174] [-0.38086554408073425:0.53096002340316772] [-0.3868897557258606:0.43954735994338989] [-0.25454938411712646:1.0850744247436523] [-0.70598757266998291:0.39103040099143982] [-1.444621205329895:-0.3321569561958313] [-0.9557310938835144:-0.088320307433605194] [-0.46680530905723572:0.41065853834152222] [-0.79953873157501221:0.41443672776222229] [-0.15886303782463074:0.72307127714157104] [-0.55823630094528198:0.44657191634178162] [-1.193568229675293:-0.33480936288833618] [-0.42620587348937988:0.60904008150100708] [-0.23020535707473755:0.57356196641921997] [-0.61185920238494873:0.36597445607185364] [-0.036650191992521286:0.71289741992950439] [-1.075961709022522:0.020241403952240944] [-0.6928895115852356:0.12762454152107239] [-0.14903745055198669:0.4929618239402771] [-0.40102872252464294:0.67817437648773193] [0.02400442399084568:0.89726859331130981] [-0.63276422023773193:0.37247118353843689] [-1.0683755874633789:-0.12891489267349243] [-1.1898984909057617:-0.54880064725875854] [-0.9489140510559082:-0.33012306690216064] [-0.21905484795570374:0.84542989730834961] [-0.3038361668586731:0.46464791893959045] [0.57100421190261841:1.5421037673950195] [-0.66200637817382812:0.075241982936859131] [-0.9137151837348938:-0.0094828829169273376] [-0.75592124462127686:0.067134149372577667] [-1.2593508958816528:-0.28387871384620667] [-0.26817628741264343:0.50734633207321167] [-0.54162693023681641:0.31490379571914673] [-0.49250644445419312:0.55036026239395142] [-0.41245213150978088:0.43811872601509094] [-0.074768714606761932:0.93094128370285034] [-0.45114853978157043:0.22170282900333405] [-0.56010979413986206:0.11881870776414871] [-0.43916240334510803:0.78352469205856323] [-0.99954503774642944:-0.21789422631263733] [-0.96962559223175049:-0.21940639615058899] [-0.019825221970677376:0.74045157432556152] [-1.1575298309326172:-0.14557211101055145] [-0.12793409824371338:0.77635747194290161] [0.35321313142776489:0.94756501913070679] [-0.081826880574226379:0.80556780099868774] [0.48612406849861145:1.3013975620269775] [0.3036598265171051:1.0351500511169434] [-0.7740282416343689:0.034815974533557892] [-0.01684865728020668:0.83546614646911621] [-1.0708436965942383:-0.31970345973968506] [0.21933265030384064:1.0150742530822754] [-0.075704440474510193:0.64097023010253906] [0.01981404609978199:0.70025241374969482] [-1.1843260526657104:-0.26878109574317932] [-0.10925525426864624:0.64030474424362183] [-0.029172755777835846:1.0198501348495483] [-0.277030348777771:0.5753026008605957] [-0.35453197360038757:0.55391991138458252] [-0.56754255294799805:0.48206141591072083] [-0.73101979494094849:-0.037867650389671326] [-0.28039824962615967:0.45536324381828308] [-0.31133309006690979:0.57539117336273193] [-0.11280176788568497:0.58659839630126953] [-0.33584541082382202:0.42509797215461731] [-0.38461524248123169:0.24926623702049255] [-1.1348460912704468:-0.18207240104675293] [-0.46687081456184387:0.24727298319339752] [-0.57850730419158936:0.27494233846664429] [-0.57636827230453491:0.12663727998733521] [0.077564887702465057:0.80395132303237915] [-1.1010780334472656:-0.11191747337579727] [-0.13899874687194824:0.54307347536087036] [-0.45185256004333496:0.22329071164131165] [-0.16056996583938599:0.59257209300994873] [-1.038190484046936:-0.18400475382804871] [0.0517721027135849:0.65734243392944336] [-0.78499627113342285:0.20520921051502228] [0.0079743778333067894:0.65752685070037842] [-0.60754001140594482:0.14808556437492371] [-0.64506727457046509:0.17091664671897888] [-0.37681108713150024:0.43246638774871826] [-1.1340909004211426:-0.23886887729167938] [0.23443974554538727:1.1807634830474854] [-1.5917365550994873:-0.73635667562484741] [-0.18602302670478821:0.74414849281311035] [-0.82989954948425293:0.2204265296459198] [-0.93953168392181396:-0.12961727380752563] [-0.062185175716876984:0.67928671836853027] [-0.20010904967784882:0.60776692628860474] [0.19399011135101318:0.90419042110443115] [0.12842449545860291:1.1253050565719604] [-0.34745323657989502:0.62044233083724976] [-0.85774636268615723:0.047675389796495438] [0.018531028181314468:0.95051825046539307] [-1.2829558849334717:-0.18603850901126862] [-0.58767223358154297:0.12815403938293457] [-1.019742488861084:-0.30406826734542847] [-0.31830069422721863:0.50443315505981445] [-0.43988591432571411:0.088790252804756165] [0.28023660182952881:1.2228081226348877] [-0.19153201580047607:0.69097840785980225] [-0.10008946061134338:0.64704751968383789] [0.17201143503189087:0.90044552087783813] [0.21833245456218719:1.0096209049224854] [0.51007407903671265:1.5052967071533203] [-0.17131431400775909:0.50661808252334595] [0.074801802635192871:0.83800524473190308] [0.27395859360694885:1.136216402053833] [0.082991033792495728:1.2949873208999634] [0.13784104585647583:0.64212566614151001] [-0.4466606080532074:0.4991556704044342] [-0.53673756122589111:0.32423931360244751] [-0.34978613257408142:0.44343933463096619] [-0.74705004692077637:0.065241530537605286] [-0.59068310260772705:0.31333425641059875] [-0.11737958341836929:0.47187709808349609] [-0.47359573841094971:0.1727985143661499] [-0.57431894540786743:0.47079068422317505] [-0.46301251649856567:0.35053980350494385] [-0.99331027269363403:-0.11858033388853073] [-0.37037429213523865:0.47870698571205139] [-0.92146283388137817:-0.041533283889293671] [-0.55530387163162231:0.39369091391563416] [-0.28417420387268066:0.6387249231338501] [-0.73669987916946411:0.022103725001215935] [-0.50139778852462769:0.35709497332572937] [-0.18004103004932404:0.44281318783760071] [-0.75082504749298096:-0.12324831634759903] [-0.44066512584686279:0.36657348275184631] [-0.028804231435060501:1.1379581689834595] [-0.11130624264478683:0.63229823112487793] [-0.34598621726036072:0.37103432416915894] [-0.70704644918441772:0.51772725582122803] [0.08564324676990509:1.3713454008102417] [0.13864094018936157:0.93073469400405884] [-0.8034137487411499:0.1013994961977005] [-0.72112095355987549:0.10165994614362717] [0.004781265277415514:0.81154018640518188] [-0.94782936573028564:0.068237967789173126] [-0.25107291340827942:0.3123040497303009] [-0.42721980810165405:0.3499419093132019] [-0.54452228546142578:0.15050829946994781] [-0.33961951732635498:0.82435697317123413] [-0.62473404407501221:0.10499007254838943] [-0.12216179817914963:0.68206006288528442] [-0.47394394874572754:0.32918965816497803] [-0.91575276851654053:-0.22112855315208435] [0.079454392194747925:0.92977982759475708] [-0.11479336023330688:0.54783254861831665] [0.082559630274772644:1.02740478515625] [-0.95300066471099854:0.024508822709321976] [-0.64961683750152588:0.13033807277679443] [-0.25686147809028625:0.61159241199493408] [-0.20268069207668304:0.58204102516174316] [-0.78132665157318115:0.024016555398702621] [-0.38804671168327332:0.33998399972915649] [-1.0670853853225708:-0.0018001897260546684] [-0.19106182456016541:0.69399088621139526] [-0.47466126084327698:0.34877562522888184] [-0.77675211429595947:0.072422638535499573] [0.45926883816719055:1.191779613494873] [-0.38093617558479309:0.40558889508247375] [-0.50911909341812134:0.64486730098724365] [0.77792930603027344:1.583500862121582] [-1.4306395053863525:-0.47739100456237793] [-0.79693430662155151:-0.031641244888305664] [-0.38691547513008118:0.58116191625595093] [0.036245156079530716:0.86102855205535889] [-0.8066781759262085:0.058492541313171387] [-0.59347200393676758:0.088076487183570862] [0.0066576134413480759:0.78125512599945068] [-0.24562090635299683:0.56882017850875854] [-0.66379022598266602:0.22248032689094543] [-0.012002879753708839:1.1088868379592896] [-0.67780828475952148:-0.049697969108819962] [-0.70303893089294434:0.23880217969417572] [-0.28586021065711975:0.45787864923477173] [-1.4230470657348633:-0.51150041818618774] [0.1212381049990654:1.0475497245788574] [-0.57643717527389526:0.64203411340713501] [-0.96170681715011597:-0.18959932029247284] [-0.48835989832878113:0.3168276846408844] [-0.36485710740089417:0.39522001147270203] [-0.2100997120141983:0.42109024524688721] [-0.49074199795722961:0.36814895272254944] [-0.22158968448638916:0.3685201108455658] [-0.15832148492336273:0.7689022421836853] [-0.74631255865097046:0.6850849986076355] [-0.09418005496263504:1.1618750095367432] [-0.60633808374404907:0.22127379477024078] [0.35508373379707336:1.1309837102890015] [0.055798821151256561:0.9672466516494751] [-0.30178317427635193:0.73085975646972656] [-0.22716329991817474:0.49811384081840515] [-0.79640811681747437:-0.05636153370141983] [-0.3799365758895874:0.12660796940326691] [0.094107329845428467:0.71864813566207886] [-1.0822874307632446:-0.073836304247379303] [0.096886597573757172:0.77411848306655884] [-0.43706443905830383:0.2249043881893158] [-0.010176252573728561:0.76907134056091309] [-1.3064805269241333:-0.44634541869163513] [0.090186268091201782:1.3646841049194336] [0.33744880557060242:1.1132144927978516] [0.61716973781585693:1.6255213022232056] [-0.78134816884994507:0.054390851408243179] [-0.39658072590827942:0.53846603631973267] [-0.72910946607589722:0.39368194341659546] [0.57969635725021362:1.0366485118865967] [-0.71469074487686157:0.086752526462078094] [0.083142369985580444:0.92029553651809692] [-0.56615209579467773:0.45832657814025879] [-0.66021054983139038:0.25214108824729919] [-0.24544402956962585:1.0190140008926392] [-0.66067397594451904:-0.11394809186458588] [-0.19614203274250031:0.72993010282516479] [-0.20184162259101868:0.61615967750549316] [0.0015739296795800328:0.91022849082946777] [-0.30795851349830627:0.78709781169891357] [-0.84633427858352661:0.073469720780849457] [-0.34912088513374329:0.38600105047225952] [-0.79841101169586182:-0.12670019268989563] [-0.51022380590438843:0.2452978640794754] [-0.73945748805999756:-0.055092304944992065] [-0.449421226978302:0.50603008270263672] [0.23404146730899811:1.1765310764312744] [0.011661823838949203:0.66387748718261719] [-0.35203829407691956:0.40954491496086121] [-0.525748610496521:0.25846821069717407] [-0.51030260324478149:0.27388089895248413] [-0.023533085361123085:0.71964347362518311] [0.36628237366676331:1.3161146640777588] [-0.49013325572013855:0.24255821108818054] [-0.033664867281913757:0.9091220498085022] [-0.51135271787643433:0.33482632040977478] [-0.2450106292963028:0.60513609647750854] [-0.79117417335510254:0.16961130499839783] [-1.3106523752212524:-0.45055273175239563] [-0.37010243535041809:0.66183793544769287] [0.27343687415122986:1.1762738227844238] [-1.3097617626190186:-0.45853614807128906] [0.029980044811964035:0.82785582542419434] [-0.68893784284591675:0.045088674873113632] [-0.9907987117767334:-0.033039581030607224] [0.18884146213531494:0.96531015634536743] [-0.24288792908191681:0.36600884795188904] [-1.2714488506317139:-0.42348495125770569] [0.047154538333415985:0.61436283588409424] [-0.67253977060317993:0.51239937543869019] [-0.20124122500419617:0.76698082685470581] [-1.3309563398361206:-0.50023525953292847] [-0.052868854254484177:0.94647562503814697] [-1.163460373878479:0.1349833607673645] [-0.88398218154907227:-0.13661414384841919] [-0.35904073715209961:0.46227848529815674] [-0.44256240129470825:0.18871453404426575] [-0.084779098629951477:1.2481088638305664] [0.030078370124101639:0.88865935802459717] [-0.91148728132247925:0.30703744292259216] [-0.45098042488098145:0.44887828826904297] [-0.84309107065200806:0.16041922569274902] [-0.13778290152549744:0.8723263144493103] [-0.10931260138750076:0.74979990720748901] [-0.96904289722442627:-0.15526427328586578] [0.33657777309417725:1.0576826333999634] [-1.2245131731033325:-0.072234384715557098] [-0.30078765749931335:0.49208834767341614] [0.20903372764587402:0.91512048244476318] [-0.95641160011291504:-0.17821350693702698] [-0.57194256782531738:0.2012518048286438] [-1.2687125205993652:-0.31329816579818726] [-0.27459093928337097:0.70860934257507324] [-1.5212160348892212:-0.6682397723197937] [-0.33238014578819275:0.31866312026977539] [-0.51109039783477783:0.15124295651912689] [-0.7689482569694519:0.21256802976131439] [0.061477780342102051:0.96420937776565552] [0.44488066434860229:1.1319936513900757] [0.15296027064323425:1.3644745349884033] [-0.10347986966371536:0.6095241904258728] [-0.053459525108337402:0.91656786203384399] [-0.6018681526184082:0.25849604606628418] [-1.0834176540374756:0.030709447339177132] [-0.25287935137748718:0.6033896803855896] [-0.98438835144042969:0.076598681509494781] [-0.53583806753158569:0.48914921283721924] [-0.89600282907485962:0.091198645532131195] [-0.074745550751686096:0.40813091397285461] [-0.80563473701477051:-0.13140983879566193] [-0.40750449895858765:0.29517945647239685] [-0.2087303102016449:0.59206777811050415] [0.027887482196092606:0.69270360469818115] [-1.1985456943511963:-0.26476961374282837] [0.31874662637710571:0.98674887418746948] [-0.21352089941501617:0.63346248865127563] [-0.99150598049163818:-0.18329763412475586] [-0.51085096597671509:0.083527944982051849] [0.41786253452301025:1.2814565896987915] [-0.78787791728973389:-0.0031261583790183067] [-0.22613030672073364:0.39824357628822327] [-0.66594517230987549:0.012504474259912968] [-0.00017616871627978981:0.56304997205734253] [-0.67558586597442627:0.13782903552055359] [-0.075721085071563721:0.78090143203735352] [-0.5672687292098999:0.0064859585836529732] [-0.13494689762592316:0.80597388744354248] [-1.106464147567749:-0.22721442580223083] [-0.48335933685302734:0.3700631856918335] [-0.24776870012283325:0.38567233085632324] [-0.56395900249481201:0.29937121272087097] [0.56649923324584961:1.5230185985565186] [-0.52388507127761841:0.28644400835037231] [0.10762209445238113:1.274688720703125] [0.010099233128130436:0.9216352105140686] [-0.21155086159706116:0.98353070020675659] [-0.024308459833264351:0.95225918292999268] [-0.585499107837677:0.47666367888450623] [0.29291152954101562:1.3947689533233643] [-0.59274744987487793:0.39858201146125793] [-0.72241795063018799:0.030368359759449959] [-0.8533363938331604:0.028917483985424042] [-0.017174238339066505:1.2053320407867432] [-0.76462769508361816:0.15878060460090637] [-0.028713295236229897:0.6262703537940979] [-0.52880287170410156:0.071748621761798859] [-1.5403854846954346:-0.40724006295204163] [0.54840385913848877:1.5736044645309448] [-0.81373739242553711:0.46314069628715515] [-0.80949771404266357:-0.17030666768550873] [-0.43389049172401428:0.23270832002162933] [-0.18106074631214142:0.60551941394805908] [-0.58291822671890259:0.23883233964443207] [-1.1608644723892212:-0.26057228446006775] [-0.37914764881134033:0.98889392614364624] [-0.13315844535827637:1.0830795764923096] [-0.266389399766922:0.68747681379318237] [0.023374030366539955:1.1459753513336182] [-0.57615435123443604:0.18038979172706604] [0.24143753945827484:1.1969833374023438] [0.30265393853187561:1.4953142404556274] [0.5084918737411499:1.4777565002441406] [-0.38261085748672485:0.58459609746932983] [-0.036675233393907547:0.66615879535675049] [0.075167186558246613:1.0814878940582275] [-0.64185160398483276:0.4409652054309845] [0.12329541891813278:0.93298792839050293] [0.28311505913734436:1.4821034669876099] [-0.74379527568817139:-0.06506897509098053] [0.0269429050385952:0.77814590930938721] [-0.63938760757446289:0.094064362347126007] [-0.36929431557655334:0.6452144980430603] [-0.957480788230896:-0.11459590494632721] [-0.5671115517616272:0.18557193875312805] [-0.031928353011608124:0.4892725944519043] [-1.0509370565414429:-0.38326191902160645] [-0.36545959115028381:0.24428683519363403] [0.10584124177694321:0.67371153831481934] [-0.91167998313903809:0.45310282707214355] [-0.09737454354763031:0.71338486671447754] [-0.14384239912033081:0.57332324981689453] [-1.416656494140625:-0.42085719108581543] [-1.2072943449020386:-0.53494268655776978] [-0.51124441623687744:0.47779795527458191] [-0.20021040737628937:0.47683814167976379] [0.4238038957118988:1.1842721700668335] [-0.7634422779083252:0.059604071080684662] [-0.13144510984420776:0.86844503879547119] [-0.9881320595741272:-0.24369508028030396] [-0.09228815883398056:0.61236947774887085] [-0.36752763390541077:0.48862487077713013] [-0.58909285068511963:0.29985061287879944] [0.0058194361627101898:0.78254044055938721] [-0.9285351037979126:0.042349997907876968] [-0.2832368016242981:0.46969270706176758] [-0.39394369721412659:0.62993031740188599] [-0.6510280966758728:-0.026247143745422363] [-0.72096365690231323:0.11766186356544495] [-0.27160778641700745:0.30907878279685974] [-0.95736235380172729:0.043667834252119064] [-0.97859132289886475:-0.06602458655834198] [0.12131185084581375:0.68307280540466309] [-0.34258502721786499:0.42493265867233276] [-0.34586647152900696:0.73373550176620483] [0.082604631781578064:0.77578800916671753] [-0.72154319286346436:0.39108100533485413] [-0.63478994369506836:0.1142740398645401] [-0.079530932009220123:0.75106287002563477] [-0.51998835802078247:0.24878880381584167] [-0.42348283529281616:0.45250782370567322] [0.53850650787353516:1.4874953031539917] [-0.64389044046401978:0.24221743643283844] [-0.57470196485519409:0.0021325473207980394] [-1.3841463327407837:-0.082172349095344543] [-0.95679950714111328:-0.1089564710855484] [-0.91049319505691528:-0.044024690985679626] [0.30173969268798828:1.1078581809997559] [-0.74259412288665771:0.093564987182617188] [-0.24269893765449524:0.44915086030960083] [-0.37671682238578796:0.11821605265140533] [-0.45264613628387451:0.64456081390380859] [-0.072510629892349243:0.74062621593475342] [-0.14210708439350128:0.74472951889038086] [-0.25418424606323242:0.43935394287109375] [0.27803990244865417:1.2147566080093384] [-0.52898520231246948:0.34085991978645325] [-1.143152117729187:-0.08620133250951767] [-0.17056325078010559:0.72620618343353271] [-0.49490860104560852:0.23962266743183136] [-0.74435317516326904:-0.0098944362252950668] [0.072979629039764404:0.80907410383224487] [-0.036837358027696609:0.84281718730926514] [0.2320176362991333:1.5779992341995239] [-0.76101410388946533:0.01472734659910202] [-0.51779890060424805:0.2547784149646759] [-0.30057427287101746:0.44200760126113892] [-0.33364889025688171:0.49825933575630188] [-1.5408320426940918:-0.46388223767280579] [0.42018622159957886:1.059861421585083] [-0.2375645637512207:0.49775218963623047] [-0.71693634986877441:0.30286183953285217] [-0.91137129068374634:0.0083977757021784782] [-0.19626471400260925:0.63598698377609253] [0.36148166656494141:1.5486894845962524] [-0.33841970562934875:0.56087714433670044] [-0.5787925124168396:0.32363688945770264] [0.61411565542221069:1.4499119520187378] [-0.066049546003341675:0.67528539896011353] [0.28933453559875488:0.81360882520675659] [-0.70944231748580933:0.2960350513458252] [-0.85061615705490112:0.067202866077423096] [-0.13990119099617004:0.71117675304412842] [-0.43239361047744751:0.54171615839004517] [-0.59714746475219727:0.39506733417510986] [-0.27518969774246216:0.61877655982971191] [-0.16966074705123901:0.60262537002563477] [-1.1019887924194336:-0.27938300371170044] [0.15804456174373627:1.0980046987533569] [-0.61486387252807617:0.1308935284614563] [-0.11367019265890121:0.70602691173553467] [-0.55887657403945923:0.22264158725738525] [-0.20951047539710999:0.58571988344192505] [-0.047420531511306763:0.87217825651168823] [0.33521157503128052:1.2706191539764404] [0.18519936501979828:0.83164238929748535] [-0.4932631254196167:0.57568788528442383] [-0.35871285200119019:0.36302700638771057] [-0.82223665714263916:0.058268565684556961] [-0.68228679895401001:0.3347509503364563] [-0.6982763409614563:0.21378682553768158] [-0.39557871222496033:0.23283834755420685] [-0.75018757581710815:0.058996371924877167] [-0.046355478465557098:0.95573890209197998] [-0.56482565402984619:0.74240446090698242] [-1.1089186668395996:-0.14829544723033905] [-0.91247683763504028:-0.078933656215667725] [-0.2704913318157196:0.59493815898895264] [-0.89350736141204834:0.035292815417051315] [-1.3382183313369751:-0.4207293689250946] [-0.60699772834777832:0.10455504059791565] [-0.97784644365310669:0.0070525067858397961] [0.23460489511489868:0.80115717649459839] [0.29762852191925049:1.2307925224304199] [-0.3893466591835022:0.4066045880317688] [-0.16663077473640442:0.64446401596069336] [-0.81735444068908691:-0.25478255748748779] [0.59339141845703125:1.6062805652618408] [-0.26887080073356628:0.50947064161300659] [0.15350580215454102:0.71659976243972778] [-0.28539437055587769:0.38426163792610168] [0.32523554563522339:1.1765017509460449] [-0.85429036617279053:0.10958172380924225] [-0.92921543121337891:-0.15862396359443665] [-0.98951858282089233:0.28649929165840149] [-0.030434511601924896:0.85376405715942383] [-0.85599666833877563:0.10698977112770081] [-0.27330577373504639:0.56941497325897217] [-0.3254222571849823:0.46172440052032471] [-0.014376296661794186:0.67650860548019409] [-0.35222020745277405:0.54040700197219849] [0.097882933914661407:0.86962723731994629] [0.00092772371135652065:0.64571511745452881] [-0.21288792788982391:0.52807861566543579] [-0.19416825473308563:0.55995440483093262] [-0.50126123428344727:0.47845727205276489] [-0.91956871747970581:-0.085350438952445984] [-0.63368844985961914:0.51120233535766602] [-1.5651605129241943:-0.56942951679229736] [-0.10646790266036987:0.515167236328125] [-0.026291340589523315:0.62571614980697632] [0.046339362859725952:0.67609298229217529] [0.19302168488502502:0.81660926342010498] [0.26438874006271362:1.1238809823989868] [-0.58546042442321777:0.33823692798614502] [-0.013081219978630543:0.62711197137832642] [-1.3731824159622192:-0.57122063636779785] [0.098121926188468933:0.9631914496421814] [-0.84258764982223511:0.010134118609130383] [-0.65781927108764648:0.13884563744068146] [-0.52261584997177124:0.15364696085453033] [-0.14592127501964569:0.84120827913284302] [-0.33433431386947632:0.43891915678977966] [-0.31464242935180664:0.60654610395431519] [-0.71754938364028931:0.038830190896987915] [-0.15472565591335297:0.91218668222427368] [-0.52769547700881958:0.32975566387176514] [0.011560461483895779:0.81181102991104126] [-0.062707826495170593:0.70648211240768433] [-0.51956921815872192:0.22126540541648865] [1.2007343769073486:2.5106518268585205] [-0.72003060579299927:-0.01895127072930336] [0.3597758412361145:1.1701674461364746] [-0.13370464742183685:0.59006804227828979] [-0.73520606756210327:0.39308878779411316] [-0.2769131064414978:0.7253882884979248] [-0.56384962797164917:0.39763933420181274] [-0.75996828079223633:0.3019365668296814] [-0.99579727649688721:-0.15607672929763794] [-0.66469550132751465:0.10437002778053284] [-0.31256124377250671:0.34815290570259094] [-0.41880694031715393:0.59997624158859253] [0.38185179233551025:1.2630609273910522] [-0.81185120344161987:-0.040553469210863113] [0.80172795057296753:1.6255180835723877] [-0.41401576995849609:0.45584085583686829] [-0.58002090454101562:0.38429084420204163] [-0.59793424606323242:0.35742506384849548] [0.26557952165603638:0.76317054033279419] [-1.0412368774414062:-0.05219762772321701] [0.42182803153991699:1.2613598108291626] [-0.96761643886566162:-0.075880140066146851] [-1.0071690082550049:-0.2157633900642395] [-0.81805813312530518:-0.14891979098320007] [-0.24826706945896149:0.48922866582870483] [-0.075432755053043365:0.63495808839797974] [-0.62976014614105225:0.36912357807159424] [-0.66110801696777344:-0.017423616722226143] [-0.17343701422214508:0.92119461297988892] [0.13541968166828156:0.7100798487663269] [-0.36842480301856995:0.76536095142364502] [-0.41648247838020325:0.64915144443511963] [-0.11992678791284561:0.96817773580551147] [-0.85305798053741455:0.35224658250808716] [-0.46707478165626526:0.28458312153816223] [0.11705684661865234:0.90434640645980835] [-0.31190288066864014:0.61700636148452759] [-0.73592126369476318:0.20286746323108673] [-0.94276869297027588:-0.19282890856266022] [-0.82141017913818359:-0.097780428826808929] [0.23314188420772552:1.2079797983169556] [-0.54424244165420532:0.16020515561103821] [-0.064201496541500092:0.66706347465515137] [-0.59965270757675171:0.27400824427604675] [-0.69386839866638184:0.10199885815382004] [-0.063746340572834015:0.69394123554229736] [-0.89565670490264893:-0.15782147645950317] [-0.31508073210716248:0.4240516722202301] [1.455727219581604:2.622490406036377] [-0.46986719965934753:0.54108840227127075] [-0.55259257555007935:0.30893129110336304] [-0.31637671589851379:0.48381009697914124] [0.36850127577781677:1.6267483234405518] [-0.16656641662120819:0.79323965311050415] [-0.67171484231948853:0.43420502543449402] [-1.0801877975463867:-0.071911007165908813] [0.41660943627357483:1.2982742786407471] [-1.4234875440597534:-0.45632040500640869] [-0.74721747636795044:0.1992737352848053] [-0.016674626618623734:0.63602626323699951] [-0.10013336688280106:0.77422231435775757] [-0.64463615417480469:0.13183037936687469] [-0.7793700098991394:0.062835030257701874] [-0.40616372227668762:0.24634884297847748] [0.078558370471000671:0.79315042495727539] [-0.048921920359134674:0.80557888746261597] [0.1675068736076355:0.85208010673522949] [0.2294301837682724:1.1270328760147095] [0.20164448022842407:0.96225577592849731] [-0.72890579700469971:-0.0024989789817482233] [-0.25652983784675598:0.6399567723274231] [0.41774928569793701:1.5843257904052734] [-0.21230104565620422:0.73644411563873291]
tree_sizes=2203 2296 2403 2816 2698 2915 2803 2795 2612 2817 2696 2690 2914 2792 2577 2803 2787 2800 2689 2699 2693 2808 2683 2693 2685 2804 2806 2695 2907 2916 2700 2783 2687 2694 2798 2906 2690 2801 2490 2694 2581 2695 2805 2585 2579 2693 3019 2794 2699 2685 2699 3025 2795 2698 2805 2791 2810 2696 2692 2910 2802 2698 2817 2698 2801 2808 2903 2705 2923 2919 2808 2803 2810 2698 2819 2695 2810 2792 2908 2919 2812 2901 2812 2806 2796 2595 2694 2798 3027 2479 2702 2601 2928 2703 3024 2900 2921 3008 2469 2909 2826 3017 2917 3031 2575 3021 2917 2693 2703 2916 2916 2925 2819 2801 2811 3141 2908 2811 3021 2804 2799 2796 2797 2713 2923 2927 3035 2924 2802 2919 3026 3120 2803 2923 2700 2927 2709 2932 3025 2814 2799 3038 2933 2921 3035 3141 2701 2824 2809 2914 2809 2795 2710 2929 2804 2919 2923 2923 2920 2824 2913 2809 2707 2925 2818 2819 2804 2702 2932 3260 3149 3139 2819 3035 2935 3035 3040 3040 2714 2815 2818 3038 2814 2841 2937 2922 3030 2705 2925 3037 2942 2828 2717 2938 2833 3048 3040 3031 2943 3048 3060 3164 2938 2839 2947 2813 2831 2825 3052 2939 2833 2933 2843 2609 3057 2838 3046 2943 2948 3267 3060 2842 2840 3048 2839 2943 2846 2725 2938 2843 2953 3286 2948 3388 2836 3271 3059 2839 2823 2719 3170 3176 3057 3178 3161 2833 3062 3156 2944 3072 3061 2956 3178 2834 2836 3182 3194 3167 2962 2947 2842 2745 3058 2969 3076 2955 2739 3081 2948 3062 3078 2749 3064 3076 3065 2964 3083 2954 3061 3080 3188 2851 3194 2964 2842 3206 3184 3081 2849 2854 2864 3080 3079 2630 3309 2746 2850 3186 3197 3071 769 761 762 664 870 760 663 765 761 762 767 768 877 766 758 874 765 761 764 657 759 766 874 873 877 662 758 765 766 874 772 876 761 767 765 765 767 662 652 877 769 659 772 665 660 773 768 767 767 765 762 984 763 768 987 872 662 986 665 763 768 769 660 878 773 766 764 765 657 877 662 657 768 873 657 990 764 756 770 766 763 876 769 661 770 765 767 987 770 661 774 766 766 884 877 765 773 761 770 987 768 662 774 766 771 772 762 663 772 771 662 886 879 773 771 768 774 770 769 772 1000 765 776 777 769 774 773 883 767 775 880 878 887 774 774 773 879 771 886 884 883 882 771 776 882 666 768 888 770 775 881 780 778 781 773 769 885 773 770 771 990 880 893 995 771 881 1218 770 886 775 768 886 991 771 892 774 767 889 989 775 888 998 780 892 670 885 787 992 775 887 673 885 779 1219 779 779 886 780 778 670 770 777 776 776 784 1104 778 779 781 780 784 669 767 778 780 781 788 884 783 890 776 778 776 668 783 785 779 779 898 778 778 996 777 782 894 781 884 886 1112 782 1001 783 781 899 779 677 892 670 887 783 778 776 893 1000 782 897 778 775 779 674 782 901 1006 781 784 779 782 780 785 670 890 784 778 787 1008 888 897 673 669 791 780 781 786 1008 885 669 783 776 893 673 678 786 674 784 900 1008 781 671 782 668

Tree=0
num_leaves=20
num_cat=0
split_feature=287 423 85 21 190 229 170 471 374 270 72 125 696 762 33 314 2 0 0
split_gain=49.4055 44.8619 29.9442 16.0973 14.092 13.3289 13.0287 9.17968 8.16578 11.8741 6.80066 6.16948 4.81515 3.01862 0.971885 0.534117 0.0845118 1.42109e-14 7.10543e-15
threshold=0.28389385342597967 -0.31940576434135431 0.15523391962051394 -0.12100644037127493 -0.81449997425079335 0.32358556985855108 -0.31207166612148279 -0.65989276766777027 -0.41308182477951044 -1.148265480995178 0.76743784546852123 -0.48898339271545405 -0.2524739801883697 0.51920440793037426 -0.04943463392555713 -0.2600181102752685 -0.02873719576746225 0.050794143229722984 0.53960564732551586
decision_type=2 2 2 2 2 2 2 2 2 2 2 2 2 2 2 2 2 2 2
left_child=2 3 -1 6 8 -6 -2 -3 9 -4 -5 -7 13 -10 -9 18 -12 -16 -15
right_child=1 7 4 10 5 11 -8 14 12 -11 16 -13 -14 15 17 -17 -18 -19 -20
leaf_value=-1.0302026188847782 -1.0107649161671659 -1.0640227976058989 -1.0603479394766091 -1.0856284290212064 -1.0268044191089718 -1.1365924118657931 -1.0959402076512395 -1.0152505398712304 -1.1103030421716429 -1.1423432114863885 -1.1423432114863885 -1.0743792159702612 -1.09804075514995 -1.1423432114863885 -0.99282242135090815 -1.1273911324728405 -1.1348671719796146 -0.99282242135090815 -1.1423432114863885
leaf_weight=10.700853347778319 8.3600416779518145 7.0224350094795254 10.36645168066025 9.6976483464241046 7.3568366765975979 8.6944433450698888 9.697648346424101 6.6880333423614564 9.3632466793060285 7.6912383437156668 8.6944433450698835 7.3568366765975926 9.028845012187956 46.481831729412072 10.366451680660246 6.6880333423614564 6.6880333423614493 7.0224350094795218 9.3632466793060285
leaf_count=32 25 21 31 29 22 26 29 20 28 23 26 22 27 139 31 20 20 21 28
internal_value=-1.09218 -1.0595 -1.11041 -1.0925 -1.11742 -1.08253 -1.05651 -1.01372 -1.12567 -1.09527 -1.11842 -1.10808 -1.13246 -1.13678 -0.999052 -1.14074 -1.13909 -0.992822 -1.14234
internal_weight=0 74.2372 133.092 43.1378 122.391 23.4081 18.0577 31.0994 98.9829 18.0577 25.0801 16.0513 80.9252 71.8964 24.0769 62.5331 15.3825 17.3889 55.8451
internal_count=620 222 398 129 366 70 54 93 296 54 75 48 242 215 72 187 46 52 167
is_linear=0
shrinkage=1


Tree=1
num_leaves=21
num_cat=0
split_feature=526 525 591 446 527 674 369 702 498 49 358 629 162 756 208 56 5 0 0 0
split_gain=41.9443 24.6394 15.654 18.4246 13.2985 18.5842 12.8555 11.5847 10.3645 9.6967 8.99568 5.27081 5.06716 4.69195 3.12086 3.11268 0.129262 0.102281 0.0893595 0.0790883
threshold=0.85767364501953136 0.6953827738761903 0.0064635723829269418 -0.028504383750259873 1.0445995926856997 0.15280123800039294 0.11999668926000596 -0.41349136829376215 -0.14141288399696347 0.19808783382177356 0.014671551994979383 0.68433994054794323 0.25533342361450201 -0.32772484421730036 -0.91315019130706776 -0.48594190180301661 0.38934661448001867 0.23582975566387179 0.28331747651100164 0.40298600494861608
decision_type=2 2 2 2 2 2 2 2 2 2 2 2 2 2 2 2 2 2 2 2
left_child=6 7 4 -4 13 9 15 -2 -9 -6 -7 -5 18 -3 -10 -1 -17 -15 -12 -16
right_child=1 2 3 11 5 10 -8 8 14 -11 12 -13 -14 17 19 16 -18 -19 -20 -21
leaf_value=-1.1235323026514694 -1.1153265051280867 -1.1174441302954112 -1.1260487472253067 -1.0102922968287884 -1.0228745196979754 -1.0789226033879891 -1.0952223011957991 -1.0956325910719684 -1.0555882991578609 -1.0941737826233668 -1.1537296375375177 -1.0706869666008849 -1.1087618671093806 -1.1537296375375177 -1.0178416305503006 -1.1612789712590297 -1.1537296375375177 -1.1612789712590297 -1.1612789712590297 -1.0102922968287884
leaf_weight=6.6231012344360343 7.6165664196014395 10.265806913375856 9.9346518516540545 7.9477214813232404 7.9477214813232449 7.2854113578796413 10.596961975097654 7.6165664196014431 6.6231012344360378 11.921582221984862 6.6231012344360414 6.6231012344360352 7.6165664196014395 6.6231012344360378 6.6231012344360334 39.407452344894409 6.6231012344360343 13.908512592315672 9.6034967899322492 7.2854113578796387
leaf_count=20 23 31 30 24 24 22 32 23 20 36 20 20 23 20 20 119 20 42 29 22
internal_value=-1.1116 -1.09652 -1.1086 -1.07354 -1.1191 -1.10343 -1.14547 -1.06062 -1.04582 -1.06565 -1.12755 -1.03774 -1.14241 -1.14504 -1.02734 -1.15558 -1.16019 -1.15884 -1.1582 -1.01389
internal_weight=0 142.066 106.301 24.5055 81.7953 50.9979 63.2506 35.7647 28.1482 19.8693 31.1286 14.5708 23.8432 30.7974 20.5316 52.6537 46.0306 20.5316 16.2266 13.9085
internal_count=620 429 321 74 247 154 191 108 85 60 94 44 72 93 62 159 139 62 49 42
is_linear=0
shrinkage=1


Tree=2
num_leaves=22
num_cat=0
split_feature=523 509 591 242 644 216 766 299 39 143 215 200 550 41 287 475 22 30 5 0 0
split_gain=46.3368 22.3525 22.9691 14.4202 11.606 11.2285 12.747 10.4812 9.90099 9.25961 7.30418 5.90794 11.1361 5.55583 4.26197 2.67004 1.32907 1.00501 0.504633 0.0765838 7.10543e-15
threshold=0.70063269138336193 -0.20258010923862454 -0.066835567355155931 0.6514490842819215 -0.93070906400680531 -0.84493082761764515 0.86690771579742443 -0.095512613654136644 0.39065608382225042 0.50978076457977306 -0.25976605713367457 0.46687026321887976 0.18085626512765887 0.33920344710350042 0.080954942852258696 -0.54921060800552357 -0.060706738382577889 -0.48483362793922419 0.41810013353824621 0.34185591340065008 0.40029838681221014
decision_type=2 2 2 2 2 2 2 2 2 2 2 2 2 2 2 2 2 2 2 2 2
left_child=1 7 3 4 9 6 -4 -1 14 -3 -2 15 16 17 -6 -9 -13 -7 20 -16 -17
right_child=10 2 5 -5 8 13 -8 11 -10 -11 -12 12 -14 -15 19 18 -18 -19 -20 -21 -22
leaf_value=-1.0643323644591813 -0.99282242135090815 -1.108167030883993 -1.1209830986098914 -1.1108651504052349 -1.0451546978983264 -1.1423432114863885 -1.0268044191089718 -1.1067430233588933 -1.0825348954321965 -1.0355426471039026 -1.055122750574025 -1.1124390534592925 -1.0539900173154229 -1.09058601490103 -1.0002984608576821 -1.1423432114863885 -1.1423432114863885 -1.1199150929660666 -1.1273911324728405 -0.99282242135090815 -1.1423432114863885
leaf_weight=7.6912383437156668 11.369656682014467 11.704058349132536 7.0224350094795209 12.707263350486754 6.68803334236146 19.729698359966278 7.3568366765975952 7.0224350094795218 6.6880333423614493 7.0224350094795218 8.0256400108337385 6.6880333423614511 7.3568366765975943 8.6944433450698835 6.6880333423614484 28.758543372154236 8.3600416779518127 6.6880333423614529 6.6880333423614493 7.0224350094795227 7.3568366765975943
leaf_count=23 34 35 21 38 20 59 22 21 20 21 24 20 22 26 20 86 25 20 20 21 22
internal_value=-1.09218 -1.09978 -1.08494 -1.06374 -1.05067 -1.11001 -1.0728 -1.11982 -1.02974 -1.08093 -1.0186 -1.12573 -1.10441 -1.12526 -1.01243 -1.13532 -1.12905 -1.13667 -1.14001 -0.996469 -1.14234
internal_weight=0 187.934 108.012 58.5203 45.813 49.4914 14.3793 79.922 27.0865 18.7265 19.3953 72.2308 22.4049 35.1122 20.3985 49.8258 15.0481 26.4177 42.8034 13.7105 36.1154
internal_count=620 562 323 175 137 148 43 239 81 56 58 216 67 105 61 149 45 79 128 41 108
is_linear=0
shrinkage=1


Tree=3
num_leaves=25
num_cat=0
split_feature=287 423 85 21 190 229 515 374 215 471 72 125 696 762 120 747 524 259 653 128 427 270 597 504
split_gain=44.828 38.9737 27.2194 14.7396 13.1974 11.982 11.7005 7.78751 11.2905 7.77019 6.46648 5.72838 4.56763 2.9007 1.22679 0.905303 0.0928826 0.0047396 0.000383206 0.000315497 0.000248565 0.000229577 0.000191125 0.000127052
threshold=0.28389385342597967 -0.31940576434135431 0.15523391962051394 -0.12100644037127493 -0.81449997425079335 0.32358556985855108 -0.36566361784934992 -0.41308182477951044 -0.25504431128501887 -0.65989276766777027 0.76743784546852123 -0.48898339271545405 -0.2524739801883697 0.48479548096656805 0.64311000704765331 1.0663901567459109 -0.20698866993188855 -0.19506624341011045 0.05913058668375016 0.2428158298134804 -0.77966949343681324 -1.2683780193328855 0.53735446929931652 0.87969428300857555
decision_type=2 2 2 2 2 2 2 2 2 2 2 2 2 2 2 2 2 2 2 2 2 2 2 2
left_child=2 3 -1 6 7 -6 -2 8 -4 -3 -5 -7 13 -9 18 17 -12 -11 19 23 -21 -20 -23 -15
right_child=1 9 4 10 5 11 -8 12 -10 15 16 -13 -14 14 -16 -17 -18 -19 21 20 -22 22 -24 -25
leaf_value=0.057859746108203138 0.00038335462046848836 0.026405901951863178 -0.035779052468704033 0.0064300958171103918 0.061182112870823771 -0.043307768900244702 0.081656750231827904 -0.012052949169435011 0.044771178980970189 0.090619464567955943 -0.041405377680973597 0.01679725860017332 -0.0057280501579416738 -0.048928974214856043 -0.026302917245237867 0.070271225142570309 -0.049325377578331671 0.092249632489953062 -0.049252521624729824 -0.04962405317135641 -0.049234327664876627 -0.048787644364312599 -0.049094657735265397 -0.049240723021087188
leaf_weight=10.966404646635054 10.780447185039522 7.1150428652763358 10.629235535860063 9.7068861126899737 7.5393669605255154 8.5146612226963043 7.5157604217529288 6.6309535801410666 7.3643344044685355 8.0222761034965533 6.5324880182743064 7.417497813701627 9.0145314931869489 6.5131644010543841 6.5515618026256552 6.9334356486797324 8.5432833433151227 10.037816792726518 7.2165829837322262 7.6062240600585929 8.8535226285457629 11.360665738582613 9.1537347137927991 6.5598596036434174
leaf_count=32 32 21 32 29 22 26 22 20 22 23 20 22 27 20 20 20 26 29 22 23 27 35 28 20
internal_value=0 0.0308089 -0.0175673 -0.000269722 -0.0244075 0.00925023 0.033769 -0.0325138 -0.00281178 0.0725059 -0.0253994 -0.0153248 -0.0392397 -0.043528 -0.0467985 0.0856294 -0.0458936 0.0915255 -0.0491434 -0.0492688 -0.0494144 -0.04901 -0.0489246 -0.0490854
internal_weight=0 75.1874 131.892 43.0789 120.926 23.4715 18.2962 97.4544 17.9936 32.1086 24.7827 15.9322 79.4608 70.4463 63.8153 24.9935 15.0758 18.0601 57.2638 29.5328 16.4597 27.731 20.5144 13.073
internal_count=620 222 398 129 366 70 54 296 54 93 75 48 242 215 195 72 46 52 175 90 50 85 63 40
is_linear=0
shrinkage=0.05


Tree=4
num_leaves=24
num_cat=0
split_feature=526 525 591 446 369 702 527 674 589 509 380 28 270 745 59 56 589 191 427 756 399 292 196
split_gain=38.4684 21.9791 14.3528 13.9738 12.1231 11.8368 11.3448 16.9031 10.8995 10.776 6.89651 6.00153 5.29984 4.95723 3.56348 2.99649 0.84248 0.44603 0.138509 0.000713064 0.000409907 0.00027069 0.000144182
threshold=0.85767364501953136 0.70956104993820202 0.0064635723829269418 -0.04767781309783458 0.11999668926000596 -0.42881187796592707 1.0445995926856997 0.16618394106626513 0.068413127213716521 -0.11503012850880621 0.21930758655071261 -0.51574477553367604 -1.1839308142662046 -0.064632911235094057 -1.0585731267929075 -0.48594190180301661 0.067331142723560347 -0.75853034853935231 -0.97706559300422657 -0.27853070199489588 0.010921619832515718 0.1681574955582619 -0.90786507725715626
decision_type=2 2 2 2 2 2 2 2 2 2 2 2 2 2 2 2 2 2 2 2 2 2 2
left_child=4 5 6 -4 15 -2 13 9 -7 11 16 -8 -5 17 -10 -1 -9 -3 -17 -19 21 22 -20
right_child=1 2 3 12 -6 8 7 10 14 -11 -12 -13 -14 -15 -16 18 -18 19 20 -21 -22 -23 -24
leaf_value=-0.011361960653984341 -0.01354610114352673 -0.033418507927370729 -0.017828228824375607 0.089088294752009384 0.015704031891810119 0.018988892652600887 0.027512545479749691 -0.04923387173053223 0.095313265348103485 -0.010843876377368809 0.012988686839933865 0.089885556235227287 0.030371476595273589 0.001805261879564597 0.053320060241599222 -0.040711681675388252 -0.026229334613555574 -0.049400574986230975 -0.048717970712929964 -0.048716933661191841 -0.048398723188821616 -0.048567640959573284 -0.049036745176193164
leaf_weight=6.5769759118556967 6.9372920393943778 6.4949370026588484 7.9064088463783291 8.8931311368942261 10.657311141490935 11.475687116384504 7.0543936789035806 10.161386430263525 13.300477772951124 7.6561939716339102 9.581812918186186 8.5078977346420288 6.7676192522048924 7.8511206805706015 8.1460091173648852 6.4416558146476737 6.5423364937305442 6.5812878310680434 6.4812259078025765 9.0721673667430824 12.539105325937269 11.622624307870863 7.8356665670871806
leaf_count=20 21 20 24 26 32 34 21 31 39 23 29 25 20 24 24 20 20 20 20 28 39 36 24
internal_value=0 0.0142815 0.00208849 0.0363582 -0.0328369 0.0458108 -0.00807004 0.00663316 0.0583184 0.0377199 -0.0208263 0.0616118 0.0637145 -0.0323327 0.079363 -0.0428824 -0.0402237 -0.0444339 -0.0474974 -0.0490044 -0.0486334 -0.0487469 -0.0488924
internal_weight=0 142.93 103.071 23.5672 62.1546 39.8595 79.5035 49.504 32.9222 23.2185 26.2855 15.5623 15.6608 29.9995 21.4465 51.4973 16.7037 22.1484 44.9203 15.6535 38.4786 25.9395 14.3169
internal_count=620 429 311 70 191 118 241 149 97 69 80 46 46 92 63 159 51 68 139 48 119 80 44
is_linear=0
shrinkage=0.05


Tree=5
num_leaves=26
num_cat=0
split_feature=523 509 591 242 736 644 216 766 299 703 110 200 550 41 105 289 475 709 689 31 259 722 41 469 518
split_gain=40.8376 20.8058 20.7883 12.967 10.6649 11.6517 10.3779 11.458 9.78508 9.1767 6.3741 5.62107 10.2156 5.30118 4.70792 3.90151 2.58586 1.38838 1.05159 0.520086 0.000629264 0.000330669 0.000217582 0.000151827 8.82835e-05
threshold=0.70063269138336193 -0.20258010923862454 -0.066835567355155931 0.6514490842819215 -0.14579336345195767 -0.92917633056640614 -0.84493082761764515 0.86690771579742443 -0.095512613654136644 -0.65758770704269398 0.015062209684401752 0.46687026321887976 0.18085626512765887 0.33920344710350042 -1.3216768503189085 0.61856019496917736 -0.54921060800552357 1.2039254903793337 -0.42953519523143763 -0.0049808039329946032 -0.068955320864915834 -0.30993697047233576 0.23951683938503268 -0.640704184770584 -0.19267357140779492
decision_type=2 2 2 2 2 2 2 2 2 2 2 2 2 2 2 2 2 2 2 2 2 2 2 2 2
left_child=1 8 3 4 15 14 7 -4 -1 -7 -2 16 17 18 -6 -3 -10 -13 -8 21 -20 22 23 -18 -24
right_child=10 2 6 -5 5 9 13 -9 11 -11 -12 12 -14 -15 -16 -17 19 -19 20 -21 -22 -23 24 -25 -26
leaf_value=0.026494603869858746 0.028763359602210749 0.094425476996361044 -0.027952482792341596 -0.018050735220831612 -0.042714701699018851 0.01451493015889288 -0.025987985961438333 0.061078876286142336 -0.013879133366858826 0.087180429430449388 0.08823912758071302 -0.049506131222826683 0.035846930157173627 0.0018238326667743246 0.016547993703352516 0.044154255517422601 -0.049408046478805569 -0.01867225127931085 -0.049449925001322011 -0.033823882824371924 -0.048872038367776253 -0.049482958329400743 -0.048818618160208681 -0.049088183228525047 -0.049075782498832321
leaf_weight=7.7699369490146628 6.8482885062694576 8.9049581289291364 6.9369884729385358 12.605488091707228 6.6874178349971771 9.1580713689327222 6.5215775668621054 7.5435730814933777 6.9657737016677848 8.2667293250560814 13.16446742415428 8.2458415329456347 7.4781301617622367 8.6732878386974317 6.7176311612129194 6.8118774890899649 6.5839279592037157 6.5514584183692923 11.201658606529236 6.5392082035541526 8.1294821500778234 6.9240691661834743 6.4970603883266449 8.4987024962902087 6.8622111082077009
leaf_count=23 20 26 21 38 20 27 20 22 21 24 38 25 22 26 20 20 20 20 34 20 25 21 20 26 21
internal_value=0 -0.00726099 0.00698219 0.0269344 0.039117 0.0220286 -0.0171006 0.0184279 -0.026782 0.0489891 0.0678867 -0.0326003 -0.0117835 -0.0320017 -0.0130166 0.0726373 -0.0420887 -0.0358545 -0.0433497 -0.0467779 -0.0492069 -0.0491731 -0.0490977 -0.0492278 -0.0489507
internal_weight=0 187.075 108.159 59.1522 46.5467 30.8298 49.0066 14.4806 78.9163 17.4248 20.0128 71.1464 22.2754 34.526 13.405 15.7168 48.871 14.7973 25.8527 41.9052 19.3311 35.366 28.4419 15.0826 13.3593
internal_count=620 562 323 175 137 91 148 43 239 51 58 216 67 105 40 46 149 45 79 128 59 108 87 46 41
is_linear=0
shrinkage=0.05


Tree=6
num_leaves=25
num_cat=0
split_feature=287 423 190 188 21 654 374 93 623 611 72 733 618 465 291 714 629 240 673 762 683 379 262 498
split_gain=40.7662 34.1382 25.3978 15.5435 13.5592 11.2161 9.95655 11.39 9.85832 7.15304 6.13094 4.73924 5.45821 4.49778 2.69602 0.940763 0.159598 0.100469 0.0135841 0.00427679 0.0017927 0.001398 0.000618588 0.000484945
threshold=0.28389385342597967 -0.31940576434135431 -0.81449997425079335 0.36376178264617925 -0.12100644037127493 0.40281513333320623 -0.41308182477951044 0.32533293962478643 0.53229260444641124 -0.056793231517076485 0.76743784546852123 -0.78283008933067311 0.13934472948312762 0.65114358067512523 1.2368043065071108 -0.42193216085433954 0.89289197325706493 -0.65074142813682545 -1.1122986674308775 0.56655794382095348 -0.23099288344383237 0.17115077376365664 0.46522749960422521 -0.17479402571916577
decision_type=2 2 2 2 2 2 2 2 2 2 2 2 2 2 2 2 2 2 2 2 2 2 2 2
left_child=2 4 6 -4 5 -2 7 -1 -5 15 -6 -8 14 -10 16 18 19 -12 -3 -13 21 -21 23 -23
right_child=1 9 3 8 10 -7 11 -9 13 -11 17 12 -14 -15 -16 -17 -18 -19 -20 20 -22 22 -24 -25
leaf_value=-0.0255938220105148 -0.0072781246104581202 0.084976506624796305 0.083236245022294417 0.051049013364027819 0.0061997957011375995 0.070621410112533436 0.0044161309420752822 0.05351021261964041 0.006532490175563949 0.02518560340180245 -0.040204921545508254 -0.049553553150825158 0.0034557106360789433 -0.049634594692483762 -0.015904963502266316 0.064905640212729113 -0.040161315887468414 -0.048535024255534305 0.087714550073644412 -0.04867081019121669 -0.049104132924216226 -0.048536791921597065 -0.047689852906510261 -0.047999907965869719
leaf_weight=12.515354633331301 9.138651371002199 8.9379597604274768 8.0621457695961016 6.8206121027469662 9.7241303622722643 9.3467194736003858 6.5252240896224967 7.1504935920238486 7.0073604583740217 7.6723797619342795 6.370038390159606 8.5595283806323987 6.590879261493682 7.2541297972202301 7.50739762187004 7.1120089590549496 6.3640665113925925 8.3834893703460676 9.1850937902927381 11.638423025608054 6.5332474708557191 6.4500489234924272 9.4621921777725202 12.089427053928384
leaf_count=38 27 25 23 20 29 27 20 21 21 22 20 26 20 22 23 20 20 26 26 36 20 20 30 38
internal_value=0 0.0291402 -0.0169474 0.0241889 -0.000212878 0.0321101 -0.0287723 0.00316837 0.00160825 0.0674627 -0.0246229 -0.0364587 -0.0400057 -0.022037 -0.0441811 0.0803165 -0.0476556 -0.0449384 0.0863642 -0.048527 -0.0483367 -0.0482102 -0.0480188 -0.0481867
internal_weight=0 75.8705 130.531 29.1442 42.963 18.4854 101.386 19.6658 21.0821 32.9074 24.4777 81.7204 75.1952 14.2615 68.6043 25.2351 61.0969 14.7535 18.1231 54.7329 46.1733 39.6401 28.0017 18.5395
internal_count=620 222 398 86 129 54 312 59 63 93 75 253 233 43 213 71 190 46 51 170 144 124 88 58
is_linear=0
shrinkage=0.05


Tree=7
num_leaves=25
num_cat=0
split_feature=35 493 18 676 497 526 339 560 751 390 26 729 318 70 421 183 84 546 542 369 521 399 636 92
split_gain=35.5549 20.4421 18.8947 13.4052 12.1836 12.6683 11.0383 8.41631 8.38087 8.17454 7.79045 7.64971 4.83422 4.04465 3.83052 2.88284 1.19032 0.956351 0.459721 0.0054386 0.00273154 0.000979093 0.000530158 0.000609939
threshold=1.3766359686851504 -0.77845296263694752 0.46250885725021368 0.39107505977153784 0.83681586384773265 1.1313813328742983 0.095755085349082961 -0.0532018095254898 0.77410152554512035 0.80061298608779918 -0.14701857417821881 -0.10547144711017607 0.050389742478728301 0.47953212261199957 0.019636278040707115 0.47441704571247106 1.4449096918106081 0.35415403544902807 -0.078828863799571977 0.10845965892076494 0.47444927692413336 -0.17012952268123624 -0.03903884440660476 -0.30599980056285853
decision_type=2 2 2 2 2 2 2 2 2 2 2 2 2 2 2 2 2 2 2 2 2 2 2 2
left_child=4 7 3 9 -1 15 8 -2 -5 14 11 -8 -10 18 17 16 -6 -3 -9 20 -18 -22 -23 -24
right_child=1 2 -4 6 5 -7 10 13 12 -11 -12 -13 -14 -15 -16 -17 19 -19 -20 -21 21 22 23 -25
leaf_value=0.026253150731616687 0.022448294854696609 0.091839394733324309 -0.048845960472521238 -0.0022401713372286131 -0.025236871757141954 0.021889151858152916 -0.026504084656451321 -0.049020409969883591 0.030577449232836219 0.018044159677824582 -0.048920210239582054 0.04592602415074494 0.086577743887663858 0.0022262130133206648 0.042801372054345248 -0.010092506115060632 -0.048761092946611941 0.06883007744830559 -0.032412562667310782 -0.049381224732174211 -0.048174208343210595 -0.047233099445540029 -0.047428538940662457 -0.048057334234399923
leaf_weight=9.731875926256178 10.317391782999037 12.818101108074194 7.1168051958084098 7.2991580069065121 6.4302496910095206 9.0003963112831098 6.5641250610351571 12.044240146875383 6.7432064414024344 9.429545193910597 7.4777725040912619 8.1984560787677765 8.9937226474285108 6.646948665380477 8.0370986461639387 6.4568052887916556 7.7714772224426261 6.9724183678627005 6.3709596693515804 7.5513207614421836 8.6257746517658145 8.4073014259338308 8.1420105695724398 7.3274106085300668
leaf_count=29 31 37 22 22 20 27 20 37 20 28 23 24 26 20 24 20 24 20 20 23 27 27 26 23
internal_value=0 0.0166229 0.0293235 0.036064 -0.0261531 -0.033469 0.0177847 -0.01556 0.0420425 0.0582778 -0.00734106 0.0137203 0.0625819 -0.031207 0.0719112 -0.0416756 -0.0454343 0.083733 -0.0432747 -0.0481499 -0.047919 -0.0477176 -0.0475527 -0.0477264
internal_weight=0 125.03 89.6504 82.5336 79.4446 69.7127 45.2764 35.3795 23.0361 37.2572 22.2404 14.7626 15.7369 25.0621 27.8276 60.7124 54.2555 19.7905 18.4152 47.8253 40.274 32.5025 23.8767 15.4694
internal_count=620 374 266 244 246 217 135 108 68 109 67 44 46 77 81 190 170 57 57 150 127 103 76 49
is_linear=0
shrinkage=0.05


Tree=8
num_leaves=23
num_cat=0
split_feature=690 766 448 134 711 126 252 711 667 764 745 653 160 479 206 714 340 738 414 509 182 199
split_gain=36.3067 17.5126 14.8442 12.2849 11.5536 11.6585 10.3251 8.69837 8.62189 6.81335 5.36306 4.82483 4.54948 3.8172 3.0114 1.93467 0.517327 0.00356162 0.00175111 0.00107967 0.00116396 0.000942408
threshold=0.20871183276176455 1.026171922683716 0.54395827651023876 -0.0920823998749256 -0.17583054304122922 -0.031880820170044892 -0.83163639903068531 -1.0000000180025095e-35 0.53601872920990001 -0.24702498316764829 -0.1408099830150604 1.0000000180025095e-35 0.70615538954734813 -0.95493251085281361 -0.073656525462865816 -0.77350971102714527 0.08566035702824594 -0.23012370616197583 0.027273435145616535 -0.26053710281848902 -0.21660573035478589 -0.017015759833157059
decision_type=2 2 2 2 2 2 2 2 2 2 2 2 2 2 2 2 2 2 2 2 2 2
left_child=9 2 6 7 -4 14 -2 11 12 -1 -5 -3 -8 -14 -6 -15 -17 -18 19 -19 -21 -20
right_child=1 3 4 10 5 -7 8 -9 -10 -11 -12 -13 13 15 -16 16 17 18 21 20 -22 -23
leaf_value=0.03024372199434755 0.019213872558072335 0.028715142298182308 0.048963719089996943 0.014349606813726488 -0.0070365538567659135 0.031675498217723384 0.00045708243747907959 -0.002793646431054769 0.023186473931825421 0.085301837960043314 -0.048806015937036713 0.082101680737213731 -0.010900749304409964 -0.022424115833817444 -0.049022902430116214 -0.033851435557111759 -0.049582736476990116 -0.047883208763920077 -0.048592707543448237 -0.049076706438441822 -0.04816825236422892 -0.049369929098816379
leaf_weight=10.46428355574608 11.420139402151106 6.8309795558452633 12.929719656705855 6.9765147268772125 6.9570832252502468 11.471912741661074 7.9440324306488028 7.3466048240661648 6.7445457577705374 12.135211706161497 6.4871298968791944 11.123956829309462 10.250864684581755 9.2123236656188876 11.059653788805006 6.5111477077007356 11.864378929138175 8.8785397112369431 7.4249782860279074 6.5299916267394904 7.6643382608890827 8.2159091532230359
leaf_count=31 34 20 38 21 21 34 24 22 20 34 20 32 31 28 34 20 36 28 23 20 24 25
internal_value=0 -0.00734861 -0.0153256 0.0225053 0.00955566 -0.00772337 -0.0256062 0.0430379 -0.0312161 0.0598082 -0.0160804 0.0617907 -0.0355585 -0.0392959 -0.0328101 -0.0436861 -0.0471171 -0.0488248 -0.0485925 -0.0483157 -0.0485862 -0.049001
internal_weight=0 183.845 145.08 38.7652 42.4184 29.4886 102.661 25.3015 91.2411 22.5995 13.4636 17.9549 84.4965 76.5525 18.0167 66.3016 57.0893 50.5781 38.7138 23.0729 14.1943 15.6409
internal_count=620 555 440 115 127 89 313 74 279 65 41 52 259 235 55 204 176 156 120 72 44 48
is_linear=0
shrinkage=0.05


Tree=9
num_leaves=25
num_cat=0
split_feature=287 423 190 188 21 170 374 421 623 471 72 258 4 455 687 302 606 178 465 36 34 211 616 58
split_gain=37.1653 30.0593 23.5149 13.7072 12.4563 10.2973 9.37256 10.6636 9.02088 6.36942 5.81699 4.56313 4.38433 3.92487 1.11286 0.817561 0.158209 0.102547 0.0191729 0.00330736 0.00198035 0.00206507 0.00083967 0.000423117
threshold=0.28389385342597967 -0.31940576434135431 -0.81449997425079335 0.36376178264617925 -0.12100644037127493 -0.31207166612148279 -0.41308182477951044 -0.036347050219774239 0.53229260444641124 -0.65989276766777027 0.76743784546852123 0.22570520639419558 -0.0048986959736794225 -0.72503414750099171 0.26682958006858831 0.15231202542781833 0.029295605607330803 -0.0051554632373154155 0.72830075025558483 -1.1687452197074888 0.36724953353405004 0.071517128497362151 -0.30314137041568751 0.63197785615921032
decision_type=2 2 2 2 2 2 2 2 2 2 2 2 2 2 2 2 2 2 2 2 2 2 2 2
left_child=2 4 6 -4 5 -2 7 -1 -5 -3 -6 13 -10 -8 16 -11 19 -12 -17 -15 21 -21 23 -22
right_child=1 9 3 8 10 -7 11 -9 12 15 17 -13 -14 14 -16 18 -18 -19 -20 20 22 -23 -24 -25
leaf_value=-0.033952228149399015 0.069565038554297506 0.021889845852602025 0.077570472719115435 0.048298617020718838 0.0060256791193127194 -0.0048422709310496394 -0.0042792602048402064 0.039711861371427917 0.00683536245830039 0.060345593411930867 -0.039161196180125264 -0.006719693280973881 -0.048904539238418518 -0.048683163032633203 -0.024639791595027237 0.082107471922260922 -0.039187008197942678 -0.047676315628281563 0.078833314198948484 -0.048339841021225051 -0.047245750367927414 -0.047191533161491377 -0.047562174319926181 -0.046716996179344036
leaf_weight=9.7905052602291125 8.8720436394214648 7.3299503028392783 8.2645540237426776 6.9294368326663998 9.7339533567428607 9.7704438269138318 6.7550116777420035 9.8610100746154767 6.9739969074726131 7.2559552192688015 6.218157321214675 11.739353954792021 7.1393619179725603 6.7743509411811749 6.3724081814289084 7.2323737740516689 6.2102177739143363 8.1963312029838544 11.711824804544447 10.578072607517251 7.4757235348224587 6.2159263193607321 10.371210187673574 7.6605105698108673
leaf_count=30 25 21 23 20 29 29 21 29 21 20 20 36 22 21 20 20 20 26 32 33 24 20 33 25
internal_value=0 0.0276421 -0.0163697 0.0230075 -0.000134485 0.0305685 -0.0279327 0.00301196 0.00157797 0.0630905 -0.0238371 -0.0355196 -0.0213611 -0.0404615 -0.0444254 0.0746171 -0.046706 -0.044003 0.0800833 -0.0476575 -0.0474932 -0.0479148 -0.0472156 -0.0469781
internal_weight=0 76.321 129.112 29.3073 42.7909 18.6425 99.8043 19.6515 21.0428 33.5301 24.1484 80.1528 14.1134 68.4134 61.6584 26.2002 55.286 14.4145 18.9442 49.0758 42.3014 16.794 25.5074 15.1362
internal_count=620 222 398 86 129 54 312 59 63 93 75 253 43 217 196 72 176 46 52 156 135 53 82 49
is_linear=0
shrinkage=0.05


Tree=10
num_leaves=24
num_cat=0
split_feature=526 525 591 446 369 527 674 702 509 589 380 28 745 629 528 59 259 610 348 121 51 726 461
split_gain=32.5241 18.3343 12.0662 11.5759 11.0374 10.0592 14.7879 9.75009 8.94328 8.7956 6.17943 4.7268 4.60612 4.34194 2.84474 2.81051 0.874489 0.473943 0.151395 0.00247515 0.00176997 0.00109478 0.000406213
threshold=0.85767364501953136 0.70956104993820202 0.0064635723829269418 -0.04767781309783458 0.11999668926000596 1.0445995926856997 0.16618394106626513 -0.42881187796592707 -0.11503012850880621 0.068413127213716521 0.21930758655071261 -0.51574477553367604 -0.064632911235094057 0.70438548922538768 0.29914352297782904 -1.0585731267929075 -0.17826727032661435 0.027254827320575718 -0.096376709640026079 0.10882592201232912 0.048542305827140815 0.11497601494193078 -0.15060231834650037
decision_type=2 2 2 2 2 2 2 2 2 2 2 2 2 2 2 2 2 2 2 2 2 2 2
left_child=4 7 5 -4 14 12 8 -2 11 -9 16 -7 17 -5 18 -11 -8 -3 -1 21 -19 22 -20
right_child=1 2 3 13 -6 6 10 9 -10 15 -12 -13 -14 -15 -16 -17 -18 20 19 -21 -22 -23 -24
leaf_value=-0.038458505992548672 -0.013055135146031389 -0.031479446724287007 -0.017288339373694867 0.0790360463143263 0.015082309488498516 0.025346601412935633 -0.024504207261622984 0.016925952831864606 -0.010259871533415555 0.084270540022081494 0.011435996958701965 0.079913250992768914 0.0017230209454357917 0.026752846078321575 -0.01057402154607923 0.047682308581935826 -0.048275170506390339 -0.047192005687658814 -0.046265978042237657 -0.04755664522176016 -0.048290142346027291 -0.047183340205341241 -0.046769644294419571
leaf_weight=6.1064673960208884 6.8835771679878226 6.2495514750480714 7.8335945606231716 9.3034249246120471 10.685361236333845 7.1540178954601332 6.3444681763649013 11.631006568670271 7.5832328498363486 13.973218798637388 9.693144738674162 8.9136588573455811 7.840633660554885 6.9281581640243521 6.6490581929683676 8.406041234731676 9.9161195158958453 6.215183973312377 10.566255092620848 11.929546207189558 8.9582084119319898 7.4582336544990531 6.4450034201145234
leaf_count=20 21 20 24 26 32 21 20 34 23 39 29 25 24 20 21 24 31 20 35 38 28 24 21
internal_value=0 0.0128903 0.00163824 0.0326291 -0.0309746 -0.00781803 0.00589721 0.0412128 0.0344954 0.0521965 -0.0201635 0.0556178 -0.0310667 0.0567199 -0.0409865 0.0705274 -0.0390003 -0.0430675 -0.0457439 -0.0469661 -0.0478403 -0.0466782 -0.0464568
internal_weight=0 143.827 102.933 24.0652 59.8399 78.8682 49.6046 40.8938 23.6509 34.0103 25.9537 16.0677 29.2636 16.2316 49.1546 22.3793 16.2606 21.4229 42.5055 36.399 15.1734 24.4695 17.0113
internal_count=620 429 311 70 191 241 149 118 69 97 80 46 92 46 159 63 51 68 138 118 48 80 56
is_linear=0
shrinkage=0.05


Tree=11
num_leaves=24
num_cat=0
split_feature=690 509 591 138 242 311 216 689 716 422 26 172 570 238 186 230 162 80 717 423 444 728 737
split_gain=32.4748 16.6952 19.8737 11.9332 11.8223 11.0191 10.5761 7.84013 7.73029 9.93328 8.23042 7.51058 5.95171 4.49245 3.39209 5.11976 3.0432 0.50856 0.500831 0.00521843 0.00277799 0.00176952 0.000525268
threshold=0.20871183276176455 -0.20258010923862454 -0.066835567355155931 0.49153871834278112 0.6514490842819215 -0.35542529821395868 -0.84493082761764515 -0.38104720413684839 -0.71797448396682728 0.27597078680992132 -0.13687701523303983 -0.10236040502786635 0.32251828908920294 0.4100282490253449 0.091104924678802504 0.59819817543029796 0.19716177135705951 0.54919716715812694 -0.5301913022994994 -0.42556382715702051 0.52138102054595958 -0.083070427179336534 0.2902656644582749
decision_type=2 2 2 2 2 2 2 2 2 2 2 2 2 2 2 2 2 2 2 2 2 2 2
left_child=12 3 4 14 8 11 7 -4 9 -3 16 -5 -1 18 15 -2 -10 19 20 -16 -8 -21 -23
right_child=1 2 6 5 -6 -7 13 -9 10 -11 -12 -13 -14 -15 17 -17 -18 -19 -20 21 -22 22 -24
leaf_value=0.08037134547147394 0.0082538419996487141 0.04196469507990816 0.05572733231668147 0.020187637968299796 -0.019261224974779272 0.051947853576444908 -0.04763636112556504 -0.02035161913578613 0.045776080401803448 -0.035728956710051732 0.016362551986186163 -0.047957459930618437 0.02944510956565928 0.0015944147280582022 -0.049024800921098011 -0.047599343579109409 0.087206676132303221 -0.03274655904426732 -0.031847396981547191 -0.048361742134033707 -0.048870144854584699 -0.047028921180232323 -0.047677423535020275
leaf_weight=11.997652024030687 8.5853230357170123 10.040720164775847 6.9126760959625244 7.0329795181751278 11.727205693721769 8.1812614202499372 11.004252791404729 6.6383458971977216 7.0175214707851437 6.9696397483348838 10.241444617509847 9.5119778513908404 10.994803875684736 6.8617026507854453 12.370614349842073 7.8585006296634665 12.03128945827484 6.3793012201786032 6.2887171506881741 6.7314304709434536 7.7936562597751609 6.1893734037876111 6.3014984130859375
leaf_count=33 26 29 20 21 36 24 35 20 20 21 30 30 32 21 38 25 34 20 20 21 24 20 20
internal_value=0 -0.00703258 0.00618371 -0.024321 0.0255822 0.00448139 -0.0185562 0.0184579 0.0369403 0.0101313 0.0525096 -0.0189901 0.0560188 -0.0342559 -0.0374086 -0.0184384 0.0719438 -0.0456236 -0.0440617 -0.0482238 -0.0481479 -0.0477083 -0.0473561
internal_weight=0 182.669 103.527 79.1423 58.0278 24.7262 45.4994 13.551 46.3006 17.0104 29.2903 16.545 22.9925 31.9483 54.416 16.4438 19.0488 37.9722 25.0866 31.5929 18.7979 19.2223 12.4909
internal_count=620 555 310 245 170 75 140 40 134 50 84 51 65 100 170 51 54 119 79 99 59 61 40
is_linear=0
shrinkage=0.05


Tree=12
num_leaves=26
num_cat=0
split_feature=287 423 85 21 259 603 250 515 518 611 72 63 229 591 705 640 55 681 240 149 643 503 311 702 302
split_gain=33.915 26.5824 22.0903 11.4663 11.0463 14.6658 9.62239 9.4207 6.93416 5.86912 5.54755 5.46281 3.46393 5.49605 1.89816 0.92182 0.822215 0.173668 0.110612 0.01925 0.00552464 0.00393136 0.00321431 0.00201201 0.00258547
threshold=0.28389385342597967 -0.31940576434135431 0.15523391962051394 -0.12100644037127493 -0.12127063795924185 -1.0979038476943968 -0.058399986475706094 -0.36566361784934992 -0.26391573250293726 -0.056793231517076485 0.76743784546852123 0.2923665344715119 0.31403918564319616 -0.10657265782356261 -0.18636066466569898 -0.7295585274696349 0.096546351909637465 -1.0774552822113035 -0.65074142813682545 0.28633996844291693 -0.35131329298019404 -0.10255559161305426 -0.37912577390670771 -0.16050317883491513 0.23102361708879474
decision_type=2 2 2 2 2 2 2 2 2 2 2 2 2 2 2 2 2 2 2 2 2 2 2 2 2
left_child=2 3 -1 7 5 8 -7 -2 -4 16 -5 -8 13 -6 -14 -10 19 -16 -12 -3 21 -19 -17 24 -22
right_child=1 9 4 10 12 6 11 -9 15 -11 18 -13 14 -15 17 22 -18 20 -20 -21 23 -23 -24 -25 -26
leaf_value=0.050809437108108813 -0.0010453706397846999 0.074622535391080949 0.016711851608636828 0.0059495012466804021 0.019742172957663347 -0.017927082216141161 0.082058244286437043 0.070716645692152733 -0.025166373513482949 0.021294602796128638 -0.038040391890798241 0.019640642819164913 -0.016864426733895512 -0.041202614165632367 -0.03826373105041575 -0.047032387954946402 0.056445175274465499 -0.049068860770658806 -0.04699600783048212 0.077822808800948884 -0.047809198928516372 -0.047432742103979686 -0.048458543151631839 -0.046237470475019006 -0.046478071838502402
leaf_weight=11.335337102413176 10.852023392915727 9.6330117285251671 6.6588175892829922 9.7311717867851275 6.479320913553237 7.9928244352340725 7.002877861261366 7.9045358002185813 6.3512025773525265 7.8285308480262747 6.0429182648658744 7.0188793241977692 6.3520749211311331 8.6217831671237928 6.0429819822311321 9.5874493420124107 7.3331398963928214 6.4994091093540183 8.0289287865161878 9.17382103204727 8.5329898893833107 8.4386590719222934 6.7202009856700853 7.5314756929874624 6.3718643784523001
leaf_count=32 32 26 20 29 20 25 20 22 20 22 20 21 20 28 20 31 20 20 26 25 27 27 21 25 21
internal_value=0 0.0262875 -0.0158163 -3.92177e-05 -0.0223155 -0.00498549 0.0258561 0.0291971 -0.0281444 0.0592725 -0.0230772 0.0508138 -0.0360288 -0.0150535 -0.0423931 -0.0413264 0.0706463 -0.046128 -0.0431502 0.0761836 -0.0473996 -0.0481446 -0.0476201 -0.0469036 -0.0472401
internal_weight=0 76.5281 127.538 42.5596 116.203 51.3323 22.0146 18.7566 29.3177 33.9685 23.803 14.0218 64.8706 15.1011 49.7695 22.6589 26.14 43.4174 14.0718 18.8068 37.3744 14.9381 16.3077 22.4363 14.9049
internal_count=620 222 398 129 366 158 66 54 92 93 75 41 208 48 160 72 71 140 46 51 120 47 52 73 48
is_linear=0
shrinkage=0.05


Tree=13
num_leaves=25
num_cat=0
split_feature=35 493 18 746 676 404 745 52 352 687 231 454 535 150 446 45 376 765 301 430 304 22 538 32
split_gain=30.3969 17.8989 14.0674 13.4049 10.7009 9.80395 10.3812 9.31274 10.3537 7.16913 6.98031 5.20745 5.14626 4.53555 3.07238 2.01032 1.09983 0.823027 0.262041 0.0126995 0.00727664 0.00534073 0.00202334 0.000294496
threshold=1.2917630672454836 -0.76513445377349842 0.40863673388957983 0.068040836602449431 0.39107505977153784 0.52091336250305187 -0.20908723026514051 -0.59915658831596363 -0.30819153785705561 0.19976177811622622 0.24116857349872592 0.58521997928619396 0.31909637153148657 0.017164167016744617 -0.035682396963238709 0.29855640232563024 -0.2131286486983299 0.30859947204589849 -0.14348861575126645 -0.49744126200675959 -0.21046541631221768 0.066565133631229415 -0.41225218772888178 -0.008651902433484791
decision_type=2 2 2 2 2 2 2 2 2 2 2 2 2 2 2 2 2 2 2 2 2 2 2 2
left_child=10 5 3 7 -5 13 -7 12 -9 17 -1 -4 -3 -2 -14 19 20 -6 -16 21 -15 -12 23 -21
right_child=1 2 11 4 9 6 -8 8 -10 -11 15 -13 14 16 18 -17 -18 -19 -20 22 -22 -23 -24 -25
leaf_value=0.0042226520365193686 0.003611866963250224 0.026484979611702743 -0.04809029222718373 0.044126481574303572 -0.048849374912051248 -0.028840234544736849 0.04786949184151168 -0.029348870948112161 0.054866849693488595 0.024860647714601943 -0.048900343279965432 0.0079705879530598024 0.04405824322202824 -0.049363004283497589 0.084036281883094768 -0.015783153731863293 -0.023569015845732365 -0.02402477084203283 0.072337194257097198 -0.045901243140069624 -0.047258452925190153 -0.046840661905667082 -0.046701614410401687 -0.045472297513749753
leaf_weight=10.13454809784889 7.3000511229038265 8.8419210612773878 7.9285629391670254 11.774502664804457 7.1177575588226336 7.6079444289207485 10.494229704141615 7.2551356554031372 7.3438986837863904 7.1257499456405631 6.4699209332466072 8.6742574870586378 8.2397685945034009 6.8612518906593385 13.963983029127119 6.2072342038154593 6.2337802946567491 6.2886826395988464 7.2825675606727662 6.5562516450881967 10.232731878757479 6.1285999417304993 6.1124401986599031 10.268532574176788
leaf_count=31 22 26 25 34 22 24 31 22 21 21 20 27 24 21 39 20 20 20 20 22 33 20 20 35
internal_value=0 0.0113796 0.0233048 0.0315066 0.00612678 -0.0135418 0.0156301 0.0469984 0.013015 -0.0156647 -0.033 -0.0188009 0.0599425 -0.0307835 0.0699752 -0.0420371 -0.041547 -0.0372047 0.0800262 -0.046623 -0.0481032 -0.0478984 -0.0459225 -0.0456394
internal_weight=0 150.567 101.837 85.234 32.3067 48.73 18.1022 52.9273 14.599 20.5322 51.8775 16.6028 38.3282 30.6278 29.4863 41.743 23.3278 13.4064 21.2466 35.5357 17.094 12.5985 22.9372 16.8248
internal_count=620 452 301 249 97 151 55 152 43 63 168 52 109 96 83 137 74 42 59 117 54 40 77 57
is_linear=0
shrinkage=0.05


Tree=14
num_leaves=23
num_cat=0
split_feature=523 689 449 522 234 195 371 356 50 63 252 539 286 215 697 517 5 667 418 745 423 562
split_gain=29.4494 17.4224 15.2184 9.95941 10.3383 9.01618 8.2583 9.57805 12.9278 7.66556 5.65778 7.36678 4.65581 4.53821 4.27256 3.63814 2.85233 2.33095 0.54275 0.00597389 0.00316722 0.0027714
threshold=0.70063269138336193 -0.37042167782783503 0.34116069972515112 0.3759166300296784 -0.4292404949665069 -0.17886792868375775 -0.25873753428459162 -0.28914153575897211 -1.9398223161697385 0.1107311211526394 -0.75309050083160389 -0.16175070405006406 0.77251374721527111 -0.25976605713367457 0.71818968653678905 0.18574711680412295 0.30377481877803808 0.4416262954473496 0.89824360609054577 -0.048244584351778023 -0.24481359869241712 -0.40489684045314783
decision_type=2 2 2 2 2 2 2 2 2 2 2 2 2 2 2 2 2 2 2 2 2 2
left_child=1 2 6 9 -5 -4 -1 8 16 -3 11 -11 -6 -2 -9 -7 -8 18 19 20 21 -12
right_child=13 3 5 4 12 15 7 14 -10 10 17 -13 -14 -15 -16 -17 -18 -19 -20 -21 -22 -23
leaf_value=-0.043356362423722788 0.075104577612688767 0.016939154954347606 0.0044405911128203327 0.061166893623818823 -0.041798636454984606 0.084543477363827002 0.034088813720282579 0.0010893678979738285 -0.023516321090337869 0.019179700259886603 -0.046817904079880401 -0.042905139293348472 0.016425276852921191 0.027752673852705717 -0.048403700928516591 0.03753944617099015 0.079275703010437681 -0.020775777752036165 -0.03150580809101388 -0.048555634146303636 -0.046224569125360583 -0.047936896540113377
leaf_weight=10.754891961812971 12.572375893592836 8.8965706527233106 9.9522613883018511 6.9808596670627621 7.0767982900142652 9.6432974338531512 6.8804099559783918 9.6278755366802269 7.7435175180435172 10.653830081224443 11.043053478002545 8.6633090972900373 6.6691559851169586 8.4681488275527936 7.9703755974769583 7.1831985414028159 7.0921066105365753 12.45094373822212 6.2296242713928214 8.6942521333694511 8.1291725337505323 11.090281307697296
leaf_count=34 34 27 30 20 22 27 20 29 24 32 36 27 20 24 25 21 20 39 20 27 27 35
internal_value=0 -0.00640715 0.0117401 -0.0194922 0.0116149 0.042165 -0.00453218 0.00608863 0.0283052 -0.0270023 -0.0320823 -0.00866398 -0.01355 0.0560469 -0.0213264 0.0644775 0.0570246 -0.039931 -0.0452092 -0.0474005 -0.0470686 -0.0473786
internal_weight=0 183.426 76.8479 106.578 20.7268 26.7788 50.0692 39.3143 21.716 85.851 76.9545 19.3171 13.746 21.0405 17.5983 16.8265 13.9725 57.6373 45.1864 38.9568 30.2625 22.1333
internal_count=620 562 230 332 62 78 152 118 64 270 243 59 42 58 54 48 40 184 145 125 98 71
is_linear=0
shrinkage=0.05


Tree=15
num_leaves=25
num_cat=0
split_feature=287 423 190 188 654 161 374 270 623 471 593 733 618 431 291 443 485 592 0 762 531 672 126 693
split_gain=30.821 23.756 20.8137 11.2513 11.0134 9.33193 8.71572 9.48748 7.80318 5.45148 4.46336 4.30918 5.06193 4.15783 2.56666 0.894724 0.726275 0.18599 0.0321618 0.0075681 0.00265184 0.00152354 0.00123915 0.00137884
threshold=0.28389385342597967 -0.31940576434135431 -0.81449997425079335 0.36376178264617925 0.39493764936923986 0.13274148106575015 -0.41308182477951044 -1.148265480995178 0.53229260444641124 -0.65989276766777027 0.23477065563201907 -0.78283008933067311 0.13934472948312762 0.56188839673995983 1.2368043065071108 0.46819764375686651 -0.41066573560237879 -0.84175449609756459 0.16927540302276614 0.56729140877723705 -0.31656084954738611 0.14049093425273898 0.019492125138640407 0.50944942235946666
decision_type=2 2 2 2 2 2 2 2 2 2 2 2 2 2 2 2 2 2 2 2 2 2 2 2
left_child=2 4 6 -4 10 -6 7 -1 -5 -3 15 -8 14 -10 17 -2 -11 -13 -18 -19 -21 22 23 -22
right_child=1 9 3 8 5 -7 11 -9 13 16 -12 12 -14 -15 -16 -17 18 19 -20 20 21 -23 -24 -25
leaf_value=0.031036620589642495 -0.024407222671107343 0.01814537270314414 0.070215610097274492 0.044720286673449176 -0.013936736299218558 0.055142681925362952 0.0051805491108945405 -0.040805453712557033 -0.047552512032340087 0.053592752805387084 0.010039903608310913 -0.036913012583401725 0.0046018803912157751 0.0073971791973711613 -0.013774699773260896 -0.048854200421524926 0.070008599522459594 -0.047636681877276064 0.074191315617801776 -0.046884851262891748 -0.046616183658316462 -0.045176911505715511 -0.045573923717577826 -0.045710306365072367
leaf_weight=11.978810727596285 6.2618227899074581 7.4684317708015433 8.4791473746299761 7.0360287725925472 8.3208276033401507 11.853501766920088 6.4361861348152152 7.4558236598968497 6.866675138473509 7.7883438467979458 6.6030821204185477 5.8476291298866263 6.4700091779232016 6.9034974277019501 7.2496006190776816 9.3029642999172193 11.2186675965786 9.0621227920055372 7.7850212752819052 7.6657685935497204 10.981802433729184 6.6524497568607321 9.9968231618404371 6.8027168810367575
leaf_count=35 20 21 23 20 26 34 20 24 22 21 20 20 20 21 23 29 30 29 21 25 36 23 34 23
internal_value=0 0.024967 -0.0152568 0.0216682 -7.93435e-05 0.0266511 -0.0264511 0.00347542 0.00188367 0.0559216 -0.024406 -0.0339883 -0.0375526 -0.0200042 -0.041797 -0.039019 0.066452 -0.0453604 0.0717221 -0.0463259 -0.0460438 -0.0458566 -0.0460193 -0.0462697
internal_weight=0 76.6027 125.885 29.2853 42.3422 20.1743 96.5997 19.4346 20.8062 34.2605 22.1679 77.1651 70.7289 13.7702 64.2589 15.5648 26.792 57.0093 19.0037 51.1617 42.0996 34.4338 27.7813 17.7845
internal_count=620 222 398 86 129 60 312 59 63 93 69 253 233 43 213 49 72 190 51 170 141 116 93 59
is_linear=0
shrinkage=0.05


Tree=16
num_leaves=25
num_cat=0
split_feature=35 493 18 80 676 41 603 368 553 560 231 159 70 376 210 180 45 263 128 430 49 22 538 104
split_gain=28.0068 16.39 12.8427 13.4758 9.32056 8.55888 7.8402 7.77103 7.66023 7.05457 6.62981 4.44036 4.19842 3.79511 3.11714 2.64313 1.98342 1.06238 0.99693 0.0123241 0.00879164 0.00618778 0.00172371 0.000341174
threshold=1.2917630672454836 -0.77845296263694752 0.43050791323184973 0.31586231291294103 0.39107505977153784 0.21297114342451098 -1.1428584456443784 0.040407605469226844 0.52263477444648754 -0.0532018095254898 0.24116857349872592 -0.79490953683853138 0.49787247180938726 -0.2700704932212829 0.48318161070346838 0.76429626345634472 0.29855640232563024 -0.41268384456634516 0.16344212740659717 -0.49744126200675959 0.18572202324867251 0.066565133631229415 -0.41225218772888178 0.25429822504520422
decision_type=2 2 2 2 2 2 2 2 2 2 2 2 2 2 2 2 2 2 2 2 2 2 2 2
left_child=10 9 3 7 11 8 -7 -3 -6 -2 -1 15 17 -4 -8 18 19 -11 -5 21 -19 -12 23 -21
right_child=1 2 13 4 5 6 14 -9 -10 12 16 -13 -14 -15 -16 -17 -18 20 -20 22 -22 -23 -24 -25
leaf_value=0.0040728783408270752 0.015132493891725555 -0.039033147970716997 -0.047099078100890188 0.058557778761683832 0.012733091054567934 0.035849057148349725 -0.048058891137747278 0.023149104527880122 0.082025371598482236 -0.022623274165717053 -0.048145504281502403 0.019848043170800186 0.0035724433210756281 0.0050212401931731846 0.00035261294001215636 0.03888423621337922 -0.014896617325447895 -0.04821160823278544 0.081364313475353403 -0.044585174786361093 -0.045824186559724693 -0.045899220389953185 -0.045816076309985493 -0.04504312194309202
leaf_weight=10.133960843086241 12.882509410381315 10.244966447353365 7.6835303902626038 7.2589176297187867 7.693174719810485 9.3963032066822034 6.6393524408340472 9.8600783646106702 8.282679468393324 6.1271432936191585 6.3455871641635841 6.8290497064590445 7.2790359556674948 6.4032667875289899 6.6608915627002716 7.3694667518138877 6.1174530684947959 8.8704361319541949 14.097549766302107 7.9186337292194393 6.8215865790843955 5.9316293299198151 5.9297595620155397 8.361852824687956
leaf_count=31 39 32 25 20 23 27 21 29 23 20 20 20 22 20 20 21 20 28 39 28 23 20 20 29
internal_value=0 0.0108535 0.0211244 0.0277744 0.0376097 0.020621 0.000886364 -0.00853723 0.0486577 -0.0156719 -0.0321056 0.0560879 -0.0293098 -0.0234074 -0.0238139 0.0647032 -0.0411348 -0.0402796 0.0736125 -0.0457889 -0.0471738 -0.0470602 -0.0450862 -0.0448204
internal_weight=0 150.4 108.419 94.3324 74.2274 38.6724 22.6965 20.105 15.9759 41.9807 50.7389 35.555 29.0982 14.0868 13.3002 28.7259 40.6049 21.8192 21.3565 34.4875 15.692 12.2772 22.2102 16.2805
internal_count=620 452 320 275 214 114 68 61 46 132 168 100 93 45 41 80 137 71 59 117 51 40 77 57
is_linear=0
shrinkage=0.05


Tree=17
num_leaves=25
num_cat=0
split_feature=690 509 591 138 242 216 311 529 172 716 422 26 654 378 508 12 162 647 109 547 400 576 720 728
split_gain=26.6507 14.8936 17.2136 10.8714 10.3005 9.47171 9.41182 6.77264 6.71322 6.47993 8.68895 6.93017 5.07862 4.21222 3.26537 4.38385 2.43283 0.867515 0.507268 0.144669 0.0143501 0.00400701 0.00302984 0.00147045
threshold=0.20871183276176455 -0.20258010923862454 -0.066835567355155931 0.49153871834278112 0.6514490842819215 -0.84493082761764515 -0.35542529821395868 0.35020150244235998 -0.10236040502786635 -0.71797448396682728 0.27597078680992132 -0.13687701523303983 0.44772136211395269 0.35614548623561865 0.73747387528419506 0.38585291802883154 0.19716177135705951 0.51616379618644725 -0.47393724322319025 -0.89032232761383046 0.41148374974727636 1.0543362498283388 0.27217443287372595 -0.044984383508563035
decision_type=2 2 2 2 2 2 2 2 2 2 2 2 2 2 2 2 2 2 2 2 2 2 2 2
left_child=12 3 4 14 9 7 8 -4 -5 10 -3 16 17 -7 18 -16 -11 -1 -2 -15 -20 23 -21 -22
right_child=1 2 5 6 -6 13 -8 -9 -10 11 -12 -13 -14 19 15 -17 -18 -19 20 22 21 -23 -24 -25
leaf_value=0.055543882673028233 -0.031247484276639665 0.038745473688524656 -0.019433909940929538 0.018576752810158276 -0.018471415230357013 -0.0032736169238980067 0.047477319387745978 0.051294136356133196 -0.046420759853259247 0.042471335033976647 -0.034318975026101955 0.015100121784678015 0.016758408025906404 -0.03769369928019542 0.011000595858921575 -0.041099764198993242 0.079182284699494676 0.079071609266378837 -0.048636126147475534 -0.045979238167692643 -0.046324188063086143 -0.047335822298019706 -0.047371661515745365 -0.045317864316140544
leaf_weight=8.4597496688365954 6.1507367193698874 10.200683653354643 6.5119249522685987 7.0744076967239407 11.548700988292692 8.676598012447359 8.3472336828708631 7.0478900372982025 9.0605833232402819 7.0935173630714443 6.769387573003768 10.28407365083695 7.6368862688541403 5.9469912946224239 7.4144327044487026 8.8648639023303968 12.405252635478972 7.2976850867271414 9.3236863911151904 6.550868064165118 7.2390336096286791 6.225301355123519 9.6791912019252759 7.2813709378242493
leaf_count=23 20 29 20 21 36 27 24 20 30 20 21 30 22 20 23 29 34 20 29 22 24 20 31 25
internal_value=0 -0.00651217 0.00594948 -0.0231395 0.0238146 -0.0175021 0.00437561 0.0173279 -0.0179225 0.0342599 0.00959995 0.048311 0.050222 -0.0328095 -0.0359707 -0.0173706 0.0658271 0.0664402 -0.0443306 -0.0443651 -0.0470068 -0.0462746 -0.0468096 -0.0458196
internal_weight=0 179.697 102.715 76.9817 58.3016 44.4135 24.4822 13.5598 16.135 46.7529 16.9701 29.7828 23.3943 30.8536 52.4994 16.2793 19.4988 15.7574 36.2201 22.1771 30.0694 20.7457 16.2301 14.5204
internal_count=620 555 310 245 170 140 75 40 51 134 50 84 65 100 170 52 54 43 118 73 98 69 53 49
is_linear=0
shrinkage=0.05


Tree=18
num_leaves=24
num_cat=0
split_feature=85 97 513 188 718 699 325 73 565 58 59 244 413 223 91 17 220 0 244 190 106 687 648
split_gain=28.5686 21.0574 14.2473 13.2394 11.2956 10.1717 9.03854 8.29272 7.4157 10.4312 6.74796 6.57692 6.56914 4.37361 2.09823 1.66628 1.53124 0.199349 0.0124203 0.00688914 0.00547845 0.00280516 0.00152839
threshold=0.26871232688426977 0.13585995137691501 1.09419721364975 0.40998007357120519 -0.58202266693115223 -0.096734888851642595 -0.38781176507472986 -0.78222972154617298 -0.35885724425315851 0.64186483621597301 -0.89863359928131092 0.018835333175957206 0.35927765071392065 -0.010850696824491022 -0.27917294204235071 0.28846748173236852 0.075468353927135481 -0.047007357701659196 0.023446656763553623 -0.85196360945701588 -0.62014555931091297 0.20601371675729754 0.70918345451354992
decision_type=2 2 2 2 2 2 2 2 2 2 2 2 2 2 2 2 2 2 2 2 2 2 2
left_child=3 2 4 15 -2 -4 11 -7 13 12 16 -5 -10 14 -3 -1 18 -16 -6 20 -19 22 -22
right_child=1 8 5 6 10 7 -8 -9 9 -11 -12 -13 -14 -15 17 -17 -18 19 -20 -21 21 -23 -24
leaf_value=0.072663843776532552 0.039907663029341858 -0.020529783615528666 0.073260697207316539 0.0024371316699608068 -0.04895088190796669 -0.029128831746386898 -0.028030500950721057 0.046564965195522917 0.053653521758679025 -0.042703101215139469 0.013196629574966033 0.06830036748749678 -0.012782474656730139 0.002802031911234043 -0.036119069017348134 0.04319283218304415 -0.017992927631659994 -0.046859231912147532 -0.046036156655600853 -0.047374250436118238 -0.044583689103558977 -0.046235419258317631 -0.045578092594978019
leaf_weight=14.44775974750519 9.3334663212299329 10.997041821479796 12.01999342441559 8.0180106461048144 6.7009235620498684 6.8106051385402679 9.7863838374614698 7.7198893427848798 8.0744741261005419 10.105369269847868 8.9989700615406054 7.1885322928428641 6.9008786976337424 6.6331838071346274 5.6844453215599051 7.179612696170806 6.3504885137081137 8.5410864651203102 8.0404426455497724 8.7009947597980517 9.0381277203559929 6.6139037013053885 6.7499645054340354
leaf_count=39 27 36 33 24 21 21 31 22 23 33 27 20 22 21 20 20 20 28 27 28 32 22 23
internal_value=0 -0.0104364 0.0109206 0.034237 -0.00814721 0.0392341 0.0094508 0.0110864 -0.0264409 -0.00344954 -0.0230527 0.0335724 0.0230388 -0.0356 -0.0401224 0.0628804 -0.0385187 -0.0448757 -0.0473611 -0.0461313 -0.0457818 -0.045371 -0.0450088
internal_weight=0 154.014 65.9748 46.6203 39.4243 26.5505 24.9929 14.5305 88.0395 25.0807 30.0908 15.2065 14.9754 62.9587 56.3256 21.6274 21.0919 45.3285 14.7414 39.6441 30.9431 22.402 15.7881
internal_count=620 486 198 134 122 76 75 43 288 78 95 44 45 210 189 59 68 153 48 133 105 77 55
is_linear=0
shrinkage=0.05


Tree=19
num_leaves=24
num_cat=0
split_feature=526 525 591 369 446 572 365 418 702 589 333 332 629 196 56 540 216 358 505 35 559 566 486
split_gain=26.2951 14.5292 9.84862 9.71445 9.39329 8.5666 9.71736 8.60863 7.84108 6.57757 5.59597 4.18743 3.90516 3.72521 2.66947 2.16186 0.430603 0.166402 0.00606276 0.00595924 0.00300387 0.00147352 0.000746756
threshold=0.85767364501953136 0.70956104993820202 0.0064635723829269418 0.11999668926000596 -0.041687427088618272 -0.29430486261844629 0.50169718265533458 0.7604370415210725 -0.42881187796592707 0.068413127213716521 -0.53160420060157765 -0.009377477224916218 0.70438548922538768 -0.79208245873451222 -0.48594190180301661 0.19454255700111392 -0.86183723807334889 0.4532639235258103 -0.036281814798712723 1.2714964747428896 -0.45319107174873346 -0.5153665542602538 0.1652457341551781
decision_type=2 2 2 2 2 2 2 2 2 2 2 2 2 2 2 2 2 2 2 2 2 2 2
left_child=3 8 5 14 -4 11 7 13 -2 -10 -8 16 -6 -7 -1 -11 -3 19 -18 21 -21 22 -16
right_child=1 2 4 -5 12 6 10 -9 9 15 -12 -13 -14 -15 17 -17 18 -19 -20 20 -22 -23 -24
leaf_value=-0.0085400193956345748 -0.012740322172064915 -0.031459304038725135 -0.013758557729643656 0.014124475137539581 0.073669915830859703 0.025948927950512166 -0.042662396691504741 -0.0078208255539445708 0.01534868521028133 0.043565343656864659 0.0083075577681299608 -0.0035630238165555075 0.023727798341175138 0.075795501671819365 -0.044288372872149366 0.074562548073280291 -0.046353253691372144 -0.035649994669349018 -0.048515022729820723 -0.044748761362254218 -0.046183938564906331 -0.04367592693632949 -0.045064827285955837
leaf_weight=6.2723423540592185 6.7979996502399436 6.1348171234130886 8.3899078369140643 10.669124335050581 8.8765585422515851 7.4459611177444458 11.532874882221224 10.605397164821623 11.64085480570793 9.7450589537620562 10.101831138134001 10.88613051176071 7.0016801357269278 7.547451317310335 6.6967650353908486 13.304663479328154 6.0111545324325588 5.5857155919075003 7.0438796877861014 5.6806750297546378 10.178911298513411 5.6844311356544557 5.7601134181022644
leaf_count=20 21 20 26 32 24 22 38 33 34 27 31 34 20 21 24 36 20 20 22 20 34 21 20
internal_value=0 0.0114308 0.0012475 -0.0288484 0.0290355 -0.0074754 0.00580596 0.0266549 0.0363628 0.0459851 -0.0188631 -0.0283334 0.0516474 0.0510409 -0.0388461 0.0614574 -0.0423853 -0.043648 -0.0475196 -0.0449619 -0.0456699 -0.044343 -0.0446474
internal_weight=0 143.066 101.578 56.5281 24.2681 77.3095 47.2335 25.5988 41.4886 34.6906 21.6347 30.076 15.8782 14.9934 45.859 23.0497 19.1899 39.5866 13.055 34.0009 15.8596 18.1413 12.4569
internal_count=620 429 311 191 70 241 145 76 118 97 69 96 44 43 159 63 62 139 42 119 54 65 44
is_linear=0
shrinkage=0.05


Tree=20
num_leaves=24
num_cat=0
split_feature=690 766 237 689 518 239 266 115 632 475 20 517 382 145 403 612 206 641 369 390 583 358 342
split_gain=24.2836 14.4504 10.7463 9.69327 8.89552 10.0599 7.76275 7.68726 7.5345 5.74192 7.83505 4.63564 4.57899 4.36253 3.23547 2.16782 2.03214 0.518 0.156379 0.103432 0.0110705 0.00654691 0.0036208
threshold=0.31961740553379064 0.94671893119812023 0.74819087982177745 -0.37172004580497736 -0.18131057918071744 0.44265650212764746 -0.0060083759017288676 -0.12121199443936347 -0.13532713800668714 -0.51698410511016835 0.42738135159015661 0.0063697127625346192 -0.1544297710061073 0.71457853913307201 0.17106794565916064 1.2102281451225283 0.047745706513524062 -0.75113496184349049 -0.10083540529012679 0.72132453322410595 -0.48854959011077875 0.06626442447304727 0.089993681758642211
decision_type=2 2 2 2 2 2 2 2 2 2 2 2 2 2 2 2 2 2 2 2 2 2 2
left_child=2 6 4 8 5 -1 9 13 -3 10 12 -11 -2 19 -10 17 18 -13 -6 -5 -19 -22 -23
right_child=1 3 -4 7 16 -7 -8 -9 14 11 -12 15 -14 -15 -16 -17 -18 20 -20 -21 21 22 -24
leaf_value=0.045764582968029863 0.0047629544473133199 -0.0091754197558679886 -0.01443657156725551 -0.038231086153420198 0.066194022380378567 -0.034010647809566905 0.030538297587705099 0.033402432082660465 0.077434532427567634 -0.0052822563584326108 0.040414359524614571 -0.031023015377746654 -0.046831813657397657 0.0020638776923814447 0.033342023808495207 -0.018451579766960678 0.038667010918790108 -0.04802735116233145 0.075865848030457275 -0.047328956253041968 -0.046971273709617761 -0.044815763419363074 -0.046297034879900063
leaf_weight=9.7868247628211957 8.0991634428501165 7.0238831937313106 10.765310019254683 5.9992806613445335 8.6200920343399066 6.6282804310321799 6.6399857997894278 8.0884650647640211 7.3311754167079952 12.17214199900627 6.896039903163909 6.3109133839607159 9.1681948304176331 9.4292183220386487 9.6199540197849256 9.9905056059360486 6.9190018475055686 9.1068300306796939 8.1123871803283745 6.5183389782905579 11.055915951728837 10.264398097991945 6.8979048430919638
leaf_count=28 25 21 33 20 23 21 20 24 20 38 20 21 30 29 28 32 20 29 22 21 36 36 23
